4039 10
3437 -0.902089 -0.634167 -0.993413 -0.433631 -1.476950 -0.067106 -1.506422 -0.469841 1.433367 0.927944
107 0.916746 -0.057436 -0.105880 0.218764 0.767045 0.227706 -1.029092 -1.545246 0.649267 0.127188
1684 1.099185 -1.058416 0.543651 0.137296 -0.289071 -1.432021 -1.614661 0.026941 0.270896 0.614999
0 -0.053534 -1.404128 -0.930254 -2.041194 0.355708 -1.460095 -0.930710 -1.494804 -0.014456 0.568519
1912 -0.421654 1.253863 -0.090548 -0.642630 -0.701287 -1.970322 -0.986962 -1.078608 -0.426188 0.180012
686 -0.270374 0.829507 0.570944 -1.274623 0.645412 -1.746194 -1.088317 -0.263008 2.354874 2.651454
3980 -2.401707 -1.439197 1.830553 -0.024887 -0.806169 -1.825909 -0.712368 -2.775771 0.251655 0.982027
348 -0.041041 -1.373738 -0.346580 0.400526 0.219085 -0.901685 -0.187476 -2.109094 1.642919 -0.470481
483 -0.065132 -0.114699 -0.258685 0.268407 0.942842 -0.083451 -0.976072 -1.637580 2.166866 -0.401626
3830 -0.158651 -1.066923 -1.582878 -0.273837 -1.911548 -0.218282 -1.203180 -1.014425 1.155654 2.016222
414 -1.121184 -0.481858 0.509323 -0.169353 1.279511 -1.362515 -0.265340 -1.790448 1.466864 -0.181728
1888 0.072037 -0.017410 0.688214 -0.353808 0.668235 0.664855 -1.497293 -1.903849 0.380343 1.045081
1800 0.153406 -0.238625 0.786824 -0.126141 0.598176 0.600448 -1.354774 -1.924571 0.474410 0.854473
1663 0.105611 0.036804 0.639369 -0.181638 0.452726 0.708604 -1.517419 -1.926700 0.249676 0.971931
1352 0.244752 -0.123887 0.810773 -0.105102 0.470625 0.646406 -1.483622 -1.890974 0.359776 0.964625
828 0.268153 0.826137 0.784275 -0.622102 0.040886 -1.554792 -0.676111 -0.688286 2.597533 2.577641
1730 0.001246 -0.213023 0.809359 -0.093112 0.546091 0.632412 -1.443269 -2.118021 0.306542 0.895007
56 -0.451352 -0.836404 -1.468689 -1.896377 0.002299 -1.309678 -0.660285 -2.408198 -0.245806 0.911558
3545 -0.634388 -0.667305 -1.291251 0.731231 -1.819635 -0.273983 -1.326895 -1.017709 1.282921 1.710605
67 -0.372795 -0.668335 -1.688956 -2.004460 0.053862 -1.177950 -0.789963 -2.505505 -0.183138 1.018932
1584 0.198150 0.195056 0.700565 -0.418494 0.904973 0.467308 -1.363991 -2.149713 0.428043 0.686780
3596 -0.464720 -0.553430 -1.165284 0.740624 -1.957406 -0.149019 -1.428098 -0.991500 1.499812 1.666246
3938 -0.583105 -0.690372 -1.221308 0.666151 -1.720729 -0.101842 -1.390385 -1.008358 1.273531 1.955899
1199 0.058232 -0.053943 0.681527 -0.290259 0.720999 0.656103 -1.533209 -2.021054 0.360640 1.125251
1431 0.532491 0.043611 0.862231 -0.263789 0.597255 0.686948 -1.637692 -1.815143 0.519075 1.220993
1086 -0.072804 0.004000 0.523312 -0.162704 1.080046 0.557460 -1.560046 -1.599835 0.754906 0.506901
698 -0.850849 0.652822 -0.324085 -0.799206 -0.600184 -0.712462 -0.320306 -0.960129 2.626693 2.771483
1768 0.146951 -0.103526 0.584685 -0.066351 0.534473 0.716635 -1.627371 -1.947871 0.164946 0.932772
25 -0.587028 -1.029280 -1.472733 -1.866063 0.177309 -1.477739 -0.762058 -2.288896 -0.189094 0.946699
271 -0.393850 -1.025221 -1.578712 -2.126658 0.055117 -1.132023 -0.702886 -2.693461 0.005220 1.017512
322 -0.281306 -0.807834 -1.769534 -1.723549 0.323866 -1.457979 -0.882889 -2.262023 -0.268259 0.837218
376 -0.376970 -0.622938 -0.011461 0.766613 0.659027 -0.763576 -0.306412 -2.001415 1.641516 -0.206810
713 0.325734 0.581440 0.580146 -0.987450 0.450523 -1.711410 -0.641862 -0.642418 2.240365 2.772920
1746 0.090069 -0.095503 0.862272 -0.378969 0.710243 0.584500 -1.358814 -1.957535 0.509981 1.007535
1589 0.089015 -0.107611 0.863993 -0.173772 0.712789 0.552811 -1.564457 -1.927514 0.262277 1.091498
2543 -0.385060 1.857067 -0.453748 0.200095 -0.856005 -1.097937 -1.611487 -1.536091 -0.337764 0.418695
705 0.290471 0.953757 0.902142 -0.514033 0.244862 -1.748878 -0.799949 -0.599457 2.503754 2.534726
2347 -0.502724 1.815265 -0.459410 0.270293 -0.763977 -1.266706 -1.529833 -1.501276 -0.212581 0.427775
1126 0.291169 -0.034652 0.647012 -0.239927 0.577152 0.594390 -1.450745 -1.861761 0.280940 1.084168
26 -0.448609 -0.982939 -1.585164 -2.010630 0.051109 -1.234662 -0.701452 -2.684130 -0.094201 1.039983
1827 0.244923 -0.255892 0.880706 -0.371857 0.381978 0.716094 -1.379146 -2.102803 0.444457 0.965172
277 -0.269420 -0.933945 -1.538174 -1.794036 0.433194 -1.482780 -0.791598 -2.370244 -0.361128 1.121260
3604 -0.555764 -0.517137 -1.162028 0.364042 -2.311610 0.008612 -1.170318 -1.419618 1.474497 1.362561
1377 0.108971 0.140189 0.882197 0.078833 0.468662 0.605448 -1.372752 -2.195448 0.303705 0.829965
1804 0.123824 -0.010554 0.715665 -0.196120 0.715209 0.667744 -1.633134 -1.900747 0.391120 1.112302
1621 -0.043807 0.081820 0.756789 -0.335217 0.519166 0.627968 -1.496020 -1.898559 0.198035 0.858808
805 0.396318 0.682687 0.742618 -0.525785 0.041571 -1.552752 -0.596471 -0.691722 2.468681 2.701376
1390 0.240225 -0.180658 0.827193 -0.403728 0.689951 0.638775 -1.486470 -1.908883 0.512926 0.993861
1714 0.242723 -0.065062 0.811101 -0.317916 0.695979 0.544519 -1.353742 -1.948731 0.338229 1.111818
122 -0.093568 -0.692872 -1.585428 -1.924032 -0.024884 -1.355491 -0.491488 -2.286454 -0.024479 1.278046
1559 0.148559 -0.000514 0.813597 -0.086692 0.597350 0.603944 -1.570989 -1.886754 0.246925 1.025641
1376 0.218644 -0.063616 0.975684 -0.111746 0.338336 0.545004 -1.389441 -1.944427 0.126804 0.961600
21 0.083501 -0.802470 -1.567622 -1.986803 0.003545 -1.386902 -0.427062 -2.177974 0.021656 1.590842
3101 1.346677 -0.519421 0.761207 0.638319 -1.341185 -1.371029 -1.945636 -0.321980 0.871622 0.132317
252 -0.401021 -0.867096 -1.576421 -2.068181 0.106561 -1.275568 -0.709737 -2.641112 -0.126072 1.000472
2839 -0.171585 -1.131785 0.550256 0.621770 0.618991 -1.857228 -2.683538 0.169189 0.450124 0.668369
1612 0.281079 -0.066887 0.994633 -0.344601 0.521510 0.552094 -1.518777 -1.809655 0.218330 1.006209
1833 0.108506 0.038643 0.733270 -0.239697 0.755076 0.591317 -1.554015 -1.836574 0.316599 1.091070
475 -0.227899 -0.654456 0.111109 0.806479 0.494211 -0.618454 -0.438266 -2.033287 1.826869 -0.308471
719 0.457004 0.661310 0.679083 -0.843797 0.075407 -1.581972 -0.643666 -0.609661 2.490890 2.635348
1707 0.004278 -0.014845 0.663374 -0.273147 0.803897 0.651015 -1.485733 -1.813712 0.512634 1.234795
1078 -0.103436 -0.060933 0.642674 -0.315839 0.785546 0.624804 -1.522980 -2.018325 0.363091 1.086520
1613 0.182472 -0.150396 0.696375 -0.310213 0.473848 0.731360 -1.488901 -1.980658 0.334249 1.058760
3684 -0.727459 -0.758112 -1.557981 0.486645 -1.208065 0.164294 -1.533419 -1.042503 1.395723 1.796830
1399 0.140951 0.088033 0.611026 -0.270823 0.856805 0.539362 -1.497842 -1.961708 0.359734 1.166832
917 1.039142 0.409358 -0.441128 -0.552569 1.749676 -0.640143 -1.204762 -1.997587 1.314580 -0.381853
1610 0.026531 0.040599 0.647168 -0.305863 0.726006 0.685682 -1.553992 -1.815782 0.490106 1.088393
239 -0.437787 -0.950192 -1.587556 -2.110198 0.041015 -1.242893 -0.638453 -2.587140 0.086806 0.964014
119 0.344961 -1.500963 -1.426368 -1.486200 -0.133991 -1.160634 -0.862820 -2.741398 -0.733216 0.673678
3291 1.099430 -0.448464 1.274968 0.597265 -1.387200 -1.360203 -1.938974 -0.356715 0.867632 0.373773
428 -0.476902 -0.566943 0.355777 0.625813 0.482850 -0.652482 -0.327781 -2.212431 1.268665 -0.468558
1835 0.151351 0.001303 0.839812 -0.097833 0.342437 0.647303 -1.493949 -1.852781 0.171753 0.825040
1211 0.181108 -0.056108 0.722562 -0.197630 0.660896 0.583303 -1.509135 -1.814538 0.213579 1.240642
1471 0.202923 -0.022724 0.704841 -0.228799 0.793616 0.618493 -1.658100 -1.701930 0.350860 1.143744
3082 1.181096 -0.407470 1.220574 0.761791 -1.323573 -1.393139 -1.935722 -0.447968 1.011496 0.157772
2047 -0.107104 1.191116 -0.594763 -0.344346 -0.669262 -1.806551 -1.375725 -1.092539 -0.947913 1.329967
3397 1.179136 -0.463402 1.118057 0.535115 -1.380756 -1.338980 -1.920174 -0.383315 0.959008 0.024065
3633 -0.417335 -0.766753 -1.460395 0.408897 -1.365588 0.171960 -1.198879 -1.175221 1.485673 1.929707
3363 -0.056775 -1.218865 0.589445 0.471525 0.488731 -1.942189 -2.615005 0.040655 0.380397 0.386247
2742 1.408748 -0.236090 0.799538 0.422747 -1.480892 -1.490069 -2.122210 -0.181955 1.078828 -0.006290
3320 1.489394 -0.117493 0.946320 0.571698 -1.140074 -1.418031 -1.991576 -0.178417 1.003439 0.444304
1622 0.255341 -0.097440 0.858379 -0.285106 0.453135 0.589242 -1.412420 -1.962856 0.243477 1.001070
1391 -0.044591 0.107591 0.643764 -0.230980 0.736979 0.656174 -1.596449 -1.946002 0.351867 0.993514
200 -0.359472 -0.974017 -1.646266 -1.996803 0.115312 -1.218074 -0.691739 -2.686589 -0.060904 1.070808
1367 0.238190 -0.213366 0.917516 -0.493436 0.519725 0.615541 -1.371832 -1.966566 0.412940 1.047363
2754 -0.058518 -1.062891 0.517729 0.312559 0.502789 -1.961621 -2.695703 0.244562 0.348708 0.559539
946 0.375280 -0.127489 0.989126 -0.306058 0.625434 0.519883 -1.559607 -1.744178 0.278005 1.126004
1551 -0.123611 0.048153 0.774265 -0.101076 0.453008 0.686359 -1.503425 -2.036661 0.290760 1.048378
3838 -0.614759 -0.443418 -1.252841 0.895539 -2.091834 -0.344322 -1.442439 -1.047535 1.507504 1.587703
745 0.419987 0.822970 0.716590 -0.902755 0.119285 -1.653716 -0.634863 -0.623551 2.543962 2.468415
824 0.346840 0.814136 1.032969 -0.536505 0.078821 -1.715471 -0.523983 -0.868257 2.395098 2.671184
203 -0.314129 -0.924818 -1.610522 -1.980683 0.144603 -1.300509 -0.675082 -2.641072 -0.015704 0.875196
1554 0.087124 -0.118412 0.882617 -0.354059 0.341810 0.734982 -1.583664 -2.068004 0.167445 0.867472
925 0.321430 -0.141568 0.958770 -0.462874 0.338470 0.648549 -1.418149 -1.974244 0.266236 0.893422
747 -0.346729 0.882943 1.031660 -0.435255 -0.151257 -1.541635 -0.819605 -0.533697 2.480138 2.609587
3426 -0.036737 -1.205391 0.470847 0.342772 0.689837 -1.891312 -2.576590 0.295532 0.657908 0.778896
3756 -0.528701 -0.670860 -1.342545 0.499657 -1.375889 0.156096 -1.381668 -0.994769 1.398588 1.768693
896 0.217961 0.337326 -0.241730 -0.247374 1.216495 -0.138248 -2.254251 -1.537416 1.555873 -0.956294
304 -0.251741 -0.672882 -1.597141 -1.936895 0.128120 -1.432433 -0.654609 -2.399178 -0.213514 0.986881
3521 -1.698812 -0.668745 -1.877813 0.349210 -0.968614 -0.001354 -2.231745 -1.010147 0.941132 1.231266
1516 0.129889 -0.098323 0.877408 -0.464485 0.665557 0.572465 -1.445121 -1.971820 0.346531 1.075745
9 -0.520401 -0.964014 -1.509240 -1.908883 0.015782 -1.360322 -0.609057 -2.569536 -0.126346 1.124905
1839 0.124064 0.052848 0.622160 -0.245208 0.847755 0.623953 -1.577877 -1.941114 0.332484 1.359099
1059 0.363145 -0.209982 0.897034 -0.464295 0.550527 0.590090 -1.320809 -2.010433 0.397246 0.992465
1941 -0.236023 1.888381 -0.610185 0.188138 -0.709436 -1.232181 -1.526416 -1.457090 -0.275295 0.540440
1184 0.247792 -0.294589 0.942943 -0.529733 0.694096 0.578368 -1.341477 -1.996435 0.541918 0.994162
3280 1.349651 -0.344971 1.035828 0.771832 -1.311495 -1.503295 -1.782241 -0.374242 1.026229 0.321244
1277 0.322902 0.326007 -0.453843 -0.261489 1.158249 -0.056612 -2.216888 -1.411392 1.487811 -0.811116
3851 -0.266914 -0.565176 -1.434593 0.642076 -1.355262 0.227978 -1.352873 -1.079989 1.494936 1.788372
637 -0.360076 -0.081031 0.376610 0.321435 1.236375 -0.233640 -1.183391 -1.605847 1.722435 -0.518151
3434 1.213540 -0.321864 1.099344 0.631300 -1.259373 -1.545349 -1.917591 -0.177162 1.149689 0.377978
2863 1.076691 -0.743034 1.096016 0.681812 -1.308945 -1.595872 -1.762097 -0.388321 1.095569 0.063922
1783 0.955097 0.475027 -0.558154 -0.769534 0.991015 -0.080947 -1.436985 -2.137280 1.571175 -0.723982
136 0.272469 0.565547 -1.176602 -1.340744 -0.634908 -1.323519 -0.770110 -1.671901 -0.716979 0.201618
315 -0.094523 -0.661514 -1.918996 -1.592588 0.234938 -1.534755 -0.915304 -2.079164 -0.307938 0.703395
3051 1.340038 -0.097495 1.265462 0.442893 -1.362239 -1.152669 -2.114284 -0.274612 0.966608 0.429736
412 -0.681439 -1.079431 -0.120946 0.584861 0.496573 -0.774297 -0.452323 -1.969753 1.771425 -0.395748
1736 0.088605 0.014582 0.640637 -0.340977 0.792005 0.725176 -1.622860 -1.892825 0.567263 1.220106
1813 0.094751 0.051608 0.594813 0.233986 0.361291 0.685537 -1.366097 -2.035987 0.314357 0.836457
3116 1.281043 -0.435270 0.892269 0.711323 -1.182546 -1.552624 -1.860385 -0.290701 1.113549 0.071826
1185 0.179020 -0.001601 0.938842 -0.351096 0.695473 0.553724 -1.576836 -1.939447 0.335711 0.983818
993 0.034872 -0.124580 0.845546 0.013460 0.437382 0.583977 -1.352893 -1.976056 0.193498 0.985788
3611 -0.617894 -0.429630 -1.140183 0.788683 -2.120374 -0.316813 -1.422819 -0.990819 1.323015 1.775176
484 -0.315971 -0.521528 0.222355 0.754727 0.656586 -0.006275 -0.463303 -2.263800 1.555992 0.200303
694 0.596431 0.809857 0.716477 -0.887446 0.163199 -1.622416 -0.470794 -0.884938 2.612668 2.616852
3948 -0.381026 -0.810517 -1.446205 0.441840 -1.356906 0.137221 -1.346807 -1.054797 1.329546 1.984401
1522 0.244727 -0.050238 0.754309 -0.118620 0.407361 0.568591 -1.305977 -1.983052 0.173811 1.043766
1238 -0.046424 0.002808 0.405980 0.057826 0.837021 0.639556 -1.310828 -2.136552 0.539483 1.153578
830 0.334713 0.809029 0.947990 -0.949022 -0.103551 -1.511138 -0.454921 -0.928411 2.581548 2.553200
781 0.335283 0.958876 0.935059 -0.582945 0.150195 -1.697944 -0.826921 -0.591593 2.583209 2.576650
373 -0.676858 -0.832561 -0.114225 0.699495 0.741440 -0.838943 -0.545310 -1.995795 1.867763 -0.336163
1146 0.201570 -0.149352 0.833257 -0.207606 0.308727 0.704800 -1.485737 -2.065572 0.236888 0.883517
3090 0.255975 -1.080948 0.765314 -0.080302 0.733435 -2.074066 -2.486129 0.290851 0.765100 0.594610
1420 0.014785 -0.061168 0.859747 0.006788 0.235954 0.724477 -1.333298 -1.875955 0.457682 0.893745
2719 1.561225 -0.044556 1.105375 0.916481 -1.260144 -1.424412 -1.851484 -0.444670 1.153439 0.493144
3495 -0.438926 -0.653032 -1.404088 0.379003 -1.302753 0.157588 -1.201383 -1.066952 1.511250 1.850552
517 -0.364528 -0.680885 0.159389 0.707676 0.678969 -0.364754 -0.526401 -2.129872 1.855260 -0.145550
1017 0.398704 0.018197 0.680496 -0.377815 0.740568 0.605410 -1.493343 -1.926061 0.401689 1.227477
823 0.006538 0.824089 0.966703 -0.403230 -0.192015 -1.480871 -0.547469 -0.863688 2.490300 2.757218
2951 1.094536 -0.831627 1.680846 -0.101650 -1.199221 -0.929931 -2.064779 -0.460611 0.373639 0.604864
1557 0.168799 -0.420076 0.905598 -0.375492 0.518436 0.656523 -1.482049 -2.087445 0.400633 0.806589
1799 0.175251 0.093519 1.074612 -0.381247 0.484697 0.675152 -1.537030 -1.951201 0.465808 1.087545
916 0.206674 0.178734 0.674284 -0.275316 0.690615 0.602570 -1.467094 -1.862712 0.430177 1.193741
1879 0.113203 -0.060886 0.611525 -0.283226 0.717424 0.628018 -1.497531 -1.915221 0.335256 1.202797
98 -0.435680 -0.984804 -1.473508 -2.032202 0.058418 -1.124915 -0.682500 -2.782038 -0.051274 0.994168
2384 0.264315 1.605440 -0.707042 -0.587738 -0.741364 -1.213148 -0.983182 -1.637709 -0.398327 0.971091
1604 -0.188697 0.193182 0.373841 0.074658 0.778262 0.709219 -1.406798 -2.089201 0.516094 0.910568
1985 -0.736793 1.818753 -0.081899 0.377869 -0.887608 -1.519061 -1.481825 -1.506699 0.156141 0.131659
2111 0.297035 1.700085 -0.790986 -0.448265 -0.629599 -1.253803 -1.032776 -1.650826 -0.339722 1.111088
2266 -0.861754 1.753426 -0.124278 0.636172 -0.640169 -1.552546 -1.548802 -1.545015 0.207771 0.053418
2793 1.152567 -0.319984 1.161253 0.399053 -1.432174 -1.306358 -2.122214 -0.338390 0.958345 -0.007335
353 -0.102871 -0.576069 0.315850 0.782040 0.761358 -0.239447 -0.687314 -2.101001 1.973394 -0.135581
697 -0.002445 0.654679 0.795761 -0.672970 -0.058139 -1.481480 -0.511541 -0.816189 2.388125 2.742926
563 -0.313039 -0.676204 -0.211758 0.728088 0.181378 -0.861135 -0.031847 -2.235875 0.777368 -0.471464
1331 0.031700 -0.077923 0.520894 -0.101143 0.719863 0.684951 -1.518718 -1.930653 0.346641 1.277628
2661 1.302830 -0.433256 0.941932 0.620231 -1.363484 -1.496400 -1.902020 -0.325788 0.999542 0.177702
3877 -0.404467 -0.618566 -1.323407 0.775179 -1.536548 0.021880 -1.363858 -1.082969 1.332224 1.879516
1793 -0.018761 -0.028642 0.580468 -0.164919 0.785201 0.620516 -1.596293 -2.063537 0.183128 1.114061
3584 -0.697394 0.109117 -1.270753 -1.106747 -1.860212 0.066989 -1.689918 -1.098564 2.079045 0.194461
1603 0.130329 -0.016643 0.937199 -0.320341 0.605416 0.573824 -1.531685 -2.000362 0.252790 1.024575
1235 0.072440 0.333317 -0.119679 -0.272378 1.236876 -0.029559 -2.263044 -1.583603 1.300434 -0.913000
2944 -0.080655 -1.064356 0.546108 0.402651 0.620358 -2.004545 -2.505258 0.225509 0.549340 0.725730
363 -0.161669 -0.403962 0.230571 0.904502 0.703507 -0.440746 -0.592700 -2.035763 1.915519 -0.200722
2716 1.229380 -0.435820 1.149422 0.139164 -1.448017 -1.300613 -2.227093 -0.284559 0.644393 0.077580
2778 1.397806 -0.269942 1.043038 0.842960 -1.194536 -1.583859 -1.794297 -0.281880 1.104337 0.523038
513 -0.695914 -0.784577 -0.311692 0.755387 0.823215 -0.724339 -0.499965 -2.116409 1.684018 -0.231799
1447 0.159699 0.057334 0.438442 0.042687 0.636758 0.703105 -1.586699 -1.949141 0.269826 1.234862
1598 0.013397 0.025350 0.492643 -0.117859 0.827812 0.728805 -1.525318 -1.870074 0.561613 1.328359
1577 0.556172 1.199756 -0.176679 -0.072879 -0.370047 -0.697757 -1.036179 -1.581204 -0.816837 0.888072
1222 0.287568 0.009719 0.659555 0.119804 0.375206 0.784482 -1.499582 -1.906177 0.546579 0.872500
3232 -0.074558 -1.051814 0.556206 0.522738 0.594216 -1.891379 -2.633998 0.173916 0.450705 0.572166
1132 0.141299 0.022410 0.609885 -0.334149 0.822461 0.602734 -1.490005 -1.913863 0.384130 1.351062
1085 0.782241 -0.602572 -1.271876 0.479303 -0.552683 0.690532 -1.177438 -0.965189 0.862627 1.025134
2877 -0.045679 -1.100429 0.556346 0.630897 0.502868 -1.880743 -2.649421 0.196233 0.543246 0.683540
1361 0.126420 0.154763 0.510199 0.125326 0.495083 0.599404 -1.502697 -1.873132 0.005689 1.151332
199 -0.459577 -1.023472 -1.706931 -1.977486 0.098154 -1.208580 -0.740148 -2.624357 -0.022022 0.919467
366 -0.060324 -0.537433 0.295105 0.921581 0.738502 -0.282878 -0.618152 -2.024931 1.789494 -0.125469
188 -0.388747 -0.975258 -1.517063 -1.978421 0.032827 -1.199363 -0.599717 -2.659733 -0.059217 1.112079
3330 1.220968 -0.642158 1.211879 0.453685 -1.251296 -1.475670 -1.718043 -0.494279 1.107787 0.017179
2966 -0.125514 -1.048128 0.706092 0.479187 0.637163 -1.903581 -2.696297 0.123961 0.535312 0.410249
1076 0.353199 -0.204977 0.863368 -0.583863 0.498824 0.785101 -1.563725 -1.868959 0.611711 0.947799
285 -0.271153 -0.741131 -1.643378 -1.725592 0.102370 -1.429961 -0.699750 -2.316602 -0.316822 0.879923
1717 0.331797 -0.119088 0.716642 -0.488056 0.483791 0.739531 -1.332706 -2.079355 0.560025 1.097699
1250 0.276236 -0.485112 0.814463 -0.488346 0.638366 0.683143 -1.386660 -2.028854 0.631709 1.033209
1662 0.118744 -0.044600 0.647515 -0.273369 0.700441 0.706185 -1.642932 -1.910419 0.357618 1.218601
2081 0.298863 1.654609 -0.828385 -0.340921 -0.450586 -1.207889 -1.077934 -1.544307 -0.341018 1.118077
1153 -0.006559 -0.004099 0.492371 -0.274926 0.916173 0.650959 -1.554721 -1.919586 0.407457 1.301491
3456 -0.449620 -0.613278 -1.227525 0.435763 -1.462091 -0.060561 -1.072515 -0.997888 1.448482 1.970208
1718 0.539079 1.064100 0.075521 -0.042144 -0.261717 -0.185564 -0.925883 -1.760397 -0.817908 0.996493
4030 -2.079663 -0.993427 1.947424 0.494963 -2.005342 -2.002828 -0.785707 -2.583806 0.623906 1.489678
1107 0.030078 0.053107 0.619396 -0.134690 0.873483 0.503638 -1.408036 -1.969889 0.234358 1.377262
2199 0.400570 1.502332 -0.783860 -0.416242 -0.649514 -1.417974 -1.113823 -1.377094 -0.460841 1.129077
2786 0.060161 -1.009981 0.858479 0.108705 0.788180 -2.051402 -2.642449 0.186436 0.500843 0.491746
553 -0.623070 -1.015767 -0.051422 0.373267 0.527006 -0.848689 -0.425144 -2.036582 2.015056 -0.465609
1329 0.140264 -0.089358 0.950578 0.124096 0.375055 0.592114 -1.543652 -1.944133 0.169266 0.792727
1006 0.171958 0.091899 0.513615 -0.295471 0.848165 0.623361 -1.574979 -1.939761 0.358563 1.407142
1204 0.456914 0.444884 -0.417779 -0.141925 1.180325 -0.117161 -2.211764 -1.516306 1.598424 -0.891458
1669 -0.002365 -0.025049 0.793270 -0.150467 0.383262 0.671789 -1.532369 -2.018313 0.148101 0.707478
2730 1.142163 -1.230792 1.666744 -0.132923 -0.887575 -1.170226 -1.729556 -0.489809 0.582073 0.676479
3506 -0.728338 0.183631 -1.657573 -1.229111 -1.862930 0.019912 -1.879045 -1.181632 1.906431 0.207003
3154 0.953516 -0.477102 1.601239 0.016384 -1.384304 -0.996808 -2.216483 -0.252961 0.558385 0.613212
3793 -0.905745 0.047494 -1.457809 -1.115145 -1.955287 -0.060561 -1.878433 -1.199088 1.918030 0.085224
2328 0.325164 1.781039 -0.708749 -0.469143 -0.663938 -1.358569 -1.070981 -1.482369 -0.245614 1.035782
2233 -0.775043 1.764202 -0.003380 0.485280 -0.997274 -1.442560 -1.668860 -1.484747 0.086604 0.051272
2142 -0.898303 1.840077 -0.096107 0.403571 -0.658545 -1.607083 -1.548067 -1.351063 0.252082 0.218368
1104 0.317903 0.341439 -0.382929 -0.056385 1.144858 -0.038127 -2.358566 -1.599015 1.464281 -0.908428
3150 1.218935 -0.591514 0.994816 0.608917 -1.421393 -1.358909 -1.971647 -0.418726 0.862928 0.111426
3677 -0.556633 -0.915043 -1.209288 0.396098 -1.295140 0.275790 -1.390682 -1.021659 1.849877 1.837258
2986 -0.172034 -1.112429 0.622464 0.711296 0.502113 -1.996960 -2.618770 0.084276 0.453559 0.537155
2007 -0.179646 1.751107 -0.609487 -0.319932 -0.404550 -1.114038 -1.360426 -1.507988 -0.501014 0.783085
3201 1.255824 -0.410267 0.960323 0.763676 -1.227559 -1.396877 -1.928781 -0.370267 1.110461 0.067053
2669 -0.071876 -1.090043 0.472935 0.769156 0.666251 -1.921790 -2.604523 0.177280 0.589401 0.713578
170 -0.464361 -0.888823 -1.452039 -2.000750 0.202348 -1.367468 -0.636441 -2.391943 -0.022050 0.979291
3734 -0.492108 -0.655279 -1.479168 0.433339 -1.463113 0.105897 -1.312729 -1.128447 1.497589 2.067174
1791 0.008795 -0.144823 0.746311 0.031461 0.472330 0.618789 -1.334503 -2.129522 0.243873 1.049763
272 0.152588 -0.960710 -1.851773 -1.900762 0.172035 -1.358487 -0.526237 -2.201247 0.166300 1.736224
724 0.523784 0.849205 0.918938 -0.889059 0.463618 -1.807545 -0.526937 -0.966061 2.388356 2.753375
3078 -0.119372 -0.910096 0.648394 0.693246 0.577183 -1.977630 -2.682743 0.203911 0.726486 0.421596
3038 1.123629 -0.507501 1.141411 0.210231 -1.430492 -1.447569 -2.103520 -0.355525 0.720481 -0.086969
3035 1.144792 -0.511048 1.042578 0.601322 -1.427961 -1.607702 -1.854282 -0.286433 1.117525 0.166071
1456 0.040838 0.183428 0.454940 -0.317133 0.970340 0.621516 -1.539243 -1.876092 0.461760 1.340930
3824 -0.453121 -0.550949 -1.290322 0.635887 -2.192866 -0.403040 -1.355287 -1.037717 1.248025 1.805745
2289 0.253372 1.404732 -0.553958 -0.442435 -0.677365 -1.665155 -1.389332 -1.184530 -0.826276 1.269814
3804 -0.570996 -0.594541 -1.211545 0.811695 -2.373905 -0.547334 -1.521991 -0.957676 1.244980 1.629720
4023 -2.062634 -1.059882 1.833248 0.558725 -1.674624 -1.962479 -0.539542 -2.690309 0.997298 1.076994
1488 -0.000691 0.093469 0.548983 -0.168431 0.917163 0.685915 -1.652291 -1.856628 0.412798 1.314323
40 -0.594486 -0.883904 -1.564962 -2.069063 0.225443 -1.297628 -0.796649 -2.339744 -0.000424 0.937875
1256 -0.006917 0.234342 0.342817 -0.256428 0.871930 0.728623 -1.628515 -1.823732 0.433620 1.378196
2598 0.232515 1.581645 -0.811859 -0.668798 -0.562169 -1.158509 -1.027070 -1.730424 -0.489197 1.020107
3252 1.142419 -0.339883 0.984544 0.433550 -1.565647 -1.378756 -2.099787 -0.148058 1.140434 0.131667
1175 0.155084 0.010276 0.999165 -0.165480 0.397828 0.609126 -1.676018 -1.867140 0.128493 0.976112
1509 0.183740 0.264852 0.869913 -0.010587 0.265131 0.595339 -1.425333 -1.796032 0.190250 0.906332
3800 -0.641833 -0.575574 -1.158637 0.698783 -2.057105 -0.366714 -1.289234 -1.051539 1.237088 1.816278
500 -0.559729 -0.949579 -0.012426 0.857887 0.536024 -0.811073 -0.550699 -1.975584 1.917237 -0.346587
2560 -0.875434 1.740747 -0.179550 0.598843 -0.654478 -1.515239 -1.682611 -1.406376 0.152963 0.088130
3026 0.048830 -0.946771 0.570543 0.138939 0.748556 -2.231941 -2.663378 0.276866 0.772782 0.373824
2229 -1.029881 1.777958 -0.155579 0.573667 -0.592887 -1.647226 -1.616212 -1.315071 0.444102 0.037574
3501 -0.364854 -0.564436 -1.434083 0.394443 -1.299559 0.179092 -1.320496 -1.069699 1.468069 2.054718
3593 -0.897497 0.133401 -1.329267 -1.114259 -1.970224 0.016297 -1.773019 -1.259866 1.950427 0.074877
2956 -0.023917 -0.958913 0.933575 0.197670 0.720500 -2.095977 -2.644239 0.099576 0.613623 0.325772
2133 0.302525 1.352267 -0.530810 -0.394334 -0.529140 -1.498967 -1.319034 -1.213300 -0.873078 1.330625
606 0.139863 -0.330122 0.303586 0.837929 1.304403 -0.539646 -0.529748 -2.207725 1.256538 0.058679
2782 -0.077699 -1.130234 0.676302 0.563989 0.733778 -1.874359 -2.574419 0.139950 0.650575 0.563144
1459 0.390085 0.468745 -0.322806 -0.059453 1.130837 0.004047 -2.489210 -1.591959 1.532045 -0.958396
1902 -0.013526 0.000736 0.556453 0.217933 0.698920 0.633692 -1.428084 -1.940649 0.416940 1.158443
3442 -2.067815 -0.858238 -1.561251 -0.202112 -1.194031 -0.292299 -2.358242 -0.901778 0.814174 0.877744
3577 -0.333269 -0.728794 -1.451356 0.511033 -1.300311 0.122745 -1.257416 -1.063759 1.352253 1.911513
3198 1.165282 -0.721407 1.407304 0.382450 -1.183916 -1.498295 -1.606401 -0.527066 0.900382 0.181341
1757 0.147036 -0.226681 0.791798 -0.371886 0.648937 0.621887 -1.486914 -1.882697 0.440686 1.099683
2611 -1.030128 1.697700 -0.012175 0.731607 -0.640712 -1.575414 -1.721823 -1.384106 0.203490 0.124704
3387 -0.019874 -1.047614 0.640192 0.585432 0.632104 -2.013983 -2.692512 0.116025 0.475517 0.497730
1124 0.209346 0.186973 0.690195 0.261727 0.396636 0.666889 -1.525561 -2.140376 0.203746 0.992346
2410 -1.044293 1.617022 -0.067254 0.672120 -0.657685 -1.648754 -1.659933 -1.392598 0.152600 0.053379
3152 1.381891 -0.449154 0.933766 0.672070 -1.273473 -1.533445 -1.851686 -0.360613 1.003798 0.133920
2206 -0.997514 1.754966 -0.169146 0.805577 -0.620038 -1.687003 -1.776037 -1.342020 0.374193 0.106633
1823 0.167665 -0.013594 0.808822 -0.322396 0.864079 0.510264 -1.556554 -1.963140 0.354033 1.095487
2054 0.393491 1.724414 -0.765542 -0.441381 -0.630830 -1.132454 -1.008478 -1.630670 -0.296350 1.028332
1335 0.177991 -0.053288 0.701102 -0.174943 0.832910 0.564060 -1.560315 -1.865967 0.396096 1.143569
2694 -0.110346 -1.119364 0.739169 0.721811 0.455985 -1.809478 -2.692480 0.061301 0.529215 0.390855
688 0.061221 0.732294 0.924763 -0.771926 0.060621 -1.598848 -0.616469 -0.743192 2.337772 2.609856
2309 -1.053284 1.646036 -0.117128 0.678736 -0.660337 -1.669856 -1.626783 -1.384438 0.302816 0.049592
2218 -1.000780 1.648561 -0.126469 0.703357 -0.733503 -1.708470 -1.710876 -1.496794 0.250273 -0.063773
1583 0.229994 0.195558 -0.633610 -0.172354 1.200716 0.052468 -2.640979 -1.587342 1.179174 -0.948821
3448 -0.526691 -0.620465 -1.206597 0.559975 -1.749460 0.032396 -1.249087 -1.143542 1.510846 1.877916
2507 -1.046523 1.604080 -0.044842 0.720997 -0.745844 -1.663635 -1.723107 -1.498665 0.182475 -0.040077
186 -0.381231 -0.888466 -1.692622 -1.911877 0.157672 -1.319035 -0.615139 -2.497154 0.123933 0.890602
2324 -0.850022 1.739435 -0.128029 0.573663 -0.767111 -1.678924 -1.584153 -1.367412 0.248462 0.044427
1014 0.628420 0.457260 -0.591715 -0.482065 1.089963 0.016827 -1.973254 -1.362357 1.644120 -0.618827
1192 0.223707 0.189951 -0.256026 -0.034262 1.110909 -0.013806 -2.365896 -1.524941 1.504123 -0.968388
2283 0.158272 1.437315 -0.750430 -0.568813 -0.532127 -1.333783 -1.105942 -1.430534 -0.563569 1.115513
3076 1.548841 -0.178507 1.235363 0.812376 -0.894723 -1.432711 -1.890392 -0.364042 1.126971 0.477529
3930 -0.637207 -0.517308 -1.088629 0.768028 -1.973632 -0.184693 -1.568481 -0.865284 1.483988 1.615697
827 0.244691 0.907507 0.950011 -0.496254 0.073577 -1.647248 -0.802058 -0.578625 2.500287 2.630321
566 -0.451260 -0.784967 0.159079 0.666527 0.835548 -0.478780 -0.438248 -2.136283 1.648334 -0.051424
1983 -1.017908 1.726651 -0.087773 0.698526 -0.708102 -1.627986 -1.698328 -1.455817 0.304526 0.008557
3132 1.153265 -0.384310 0.997593 0.670000 -1.306277 -1.520146 -1.908316 -0.302974 1.176420 0.055385
3488 -0.563570 -0.424876 -1.088196 0.766224 -2.364428 -0.423082 -1.495302 -0.946107 1.376066 1.785997
1620 0.190443 -0.147500 0.561189 0.113108 0.492272 0.612674 -0.954734 -2.387813 0.530265 0.846149
1665 0.077166 0.104090 0.402391 -0.330887 0.873528 0.603459 -1.437455 -2.035125 0.284912 1.287617
559 -0.749532 -1.026553 -0.044692 0.568267 0.678088 -0.514312 -0.528781 -2.219590 1.773119 -0.209039
2960 -0.044483 -1.135838 0.642203 0.655392 0.650904 -1.856949 -2.753815 0.084847 0.431446 0.543260
2188 -1.041291 1.670293 0.014237 0.612195 -0.761415 -1.702170 -1.738100 -1.390979 0.286478 -0.131794
3351 1.248746 -0.332763 0.896789 0.794607 -1.357302 -1.488240 -1.943467 -0.309009 1.090466 0.094510
2464 -1.054891 1.649706 -0.061886 0.772751 -0.704686 -1.719499 -1.739562 -1.399973 0.292836 0.054664
853 0.660183 0.851544 0.852067 -0.854839 0.196641 -1.674586 -0.471006 -0.962607 2.512157 2.615138
3758 -0.634769 -0.104456 -1.267309 -0.979899 -2.209014 -0.017858 -1.683429 -1.350475 1.957256 0.037398
561 -0.688238 -1.136829 -0.049720 0.637913 0.582878 -0.579973 -0.585524 -2.253188 1.835394 -0.298097
1570 -0.003527 0.002122 0.621105 0.083144 0.294983 0.822878 -1.604276 -2.127726 0.246587 0.792815
1230 0.035649 0.057624 0.702725 -0.020454 0.450186 0.631191 -1.573778 -2.028701 0.076195 0.891983
2282 0.420991 1.670737 -0.585643 -0.388597 -0.518262 -1.295794 -1.090659 -1.503277 -0.376832 1.144019
2369 -1.006506 1.541850 -0.064684 0.773712 -0.836939 -1.654893 -1.702737 -1.423182 0.185554 -0.086166
280 -0.229297 -1.043268 -1.547148 -1.900210 0.195316 -1.373106 -0.746449 -2.418503 -0.218953 1.034831
538 -0.191015 -0.810073 0.418127 0.824799 0.742916 -0.190692 -0.747001 -2.278045 1.812853 -0.212428
2087 0.176497 1.530431 -0.636530 -0.440279 -0.801271 -1.097123 -1.241058 -1.602234 -0.687241 1.053371
2679 -0.115992 -0.908734 0.825631 0.281574 0.589692 -2.165675 -2.696863 0.206410 0.671096 0.199501
2526 -1.357971 1.688264 -0.124918 0.252903 -0.418590 -1.674999 -1.628955 -1.549455 0.119791 -0.029933
497 -0.477171 -0.886887 -0.127894 0.687960 0.414501 -0.657305 -0.615035 -2.098853 1.944030 -0.525828
2244 -0.952827 1.661127 -0.062469 0.808463 -0.783732 -1.707763 -1.679620 -1.416442 0.281331 0.024974
1786 0.659011 0.488618 -0.519707 -0.518141 1.129197 -0.054817 -1.953342 -1.494900 1.820045 -0.647145
3968 -0.521549 -0.852154 -1.629666 0.376202 -1.299999 0.131355 -1.289499 -1.195159 1.396474 1.925413
1269 0.126834 0.097239 0.862422 -0.219450 0.481516 0.632099 -1.561033 -1.918402 0.272752 0.863115
2833 1.414275 -0.325949 0.919848 0.646563 -1.241043 -1.569844 -1.834712 -0.308719 1.092615 0.202562
1816 0.095230 -0.207798 0.705834 -0.342600 0.783771 0.657498 -1.518864 -1.880945 0.448569 1.292655
2906 -0.081996 -1.083420 0.693179 0.613974 0.710059 -1.912559 -2.705573 0.053777 0.559060 0.464966
980 0.008104 -0.140591 0.943360 0.042764 0.410319 0.627916 -1.500460 -2.024373 0.283323 0.853986
3906 -0.870910 0.001771 -1.525202 -1.166441 -2.017972 -0.027883 -1.821719 -1.277238 1.792790 0.089663
2336 0.220874 1.521706 -0.728375 -0.408129 -0.666587 -1.128107 -1.037244 -1.717530 -0.562312 1.011472
3672 -0.843482 -0.516676 -1.077992 0.917745 -1.696543 -0.050614 -1.707914 -0.775296 1.469208 1.555506
2123 -1.054247 1.686810 -0.080808 0.644972 -0.853438 -1.709072 -1.729906 -1.391722 0.226039 -0.012204
1101 0.144386 0.081138 0.455691 -0.213781 0.838574 0.653278 -1.484870 -1.896533 0.447799 1.198380
1689 0.283322 -0.188628 0.979129 -0.564284 0.534416 0.679385 -1.502655 -2.041604 0.457556 0.904734
1472 1.200212 0.164122 -0.081926 -0.398854 0.818825 -0.373390 -1.047416 -2.940268 0.912898 -0.779602
2187 0.126528 1.540073 -0.720233 -0.421526 -0.595698 -0.981097 -1.155864 -1.697503 -0.616916 1.186033
3966 -0.512933 -0.381186 -1.219870 0.846187 -1.956096 -0.124004 -1.668751 -0.903204 1.389500 1.663160
526 -0.207363 -1.025810 0.627071 0.410298 0.659881 0.287955 -0.705089 -2.325408 0.974287 0.103670
3000 -0.161195 -0.965135 0.872958 0.229926 0.566364 -2.125087 -2.514498 0.198951 0.579087 0.455424
2607 -0.945044 1.689330 -0.106626 0.797625 -0.727173 -1.661088 -1.805023 -1.418741 0.264915 -0.030855
142 -0.524045 -0.912961 -1.499860 -2.079264 0.246421 -1.385379 -0.603302 -2.521071 0.024135 1.063147
1255 0.200152 -0.135767 0.963557 0.039978 0.244986 0.604769 -1.465664 -1.895599 0.148320 0.856708
3971 -0.720200 -0.712754 -1.413162 0.466691 -1.356992 0.036148 -1.344005 -1.058393 1.478966 1.945535
3790 -0.685279 -0.539140 -1.239653 0.753659 -2.400143 -0.625437 -1.447691 -0.917348 1.309053 1.715340
1345 0.138213 0.244994 -0.285933 -0.352554 1.123672 -0.088477 -2.467251 -1.504386 1.290998 -1.080397
3350 1.478520 -0.115580 1.166203 0.819097 -1.086433 -1.306232 -1.970166 -0.329827 1.024552 0.524084
2078 -1.014095 1.712014 -0.094065 0.618956 -0.645458 -1.637427 -1.772558 -1.398766 0.237461 0.011628
2428 -1.062088 1.570960 -0.116409 0.790896 -0.660037 -1.689005 -1.742334 -1.379017 0.231997 -0.036425
1467 0.372599 0.044610 1.030360 0.132231 0.865864 0.267019 -1.586871 -1.886544 -0.031102 1.077757
1591 0.374285 0.460522 -0.409212 -0.320134 1.264468 -0.080722 -2.134038 -1.774309 1.213696 -0.875433
1849 0.072843 0.126875 0.542276 -0.195289 0.667152 0.738154 -1.639996 -1.768662 0.479131 1.197864
2602 -1.024058 1.620923 -0.108676 0.576332 -0.712702 -1.777831 -1.620606 -1.413694 0.234817 -0.058869
2542 -0.953419 1.863026 -0.126716 0.477113 -0.617602 -1.636346 -1.544674 -1.468234 0.319073 0.128163
2220 -1.078697 1.721397 -0.025553 0.825763 -0.721997 -1.690448 -1.748303 -1.428804 0.385491 0.019073
834 0.500256 0.883231 0.912952 -0.792121 0.208485 -1.678914 -0.454441 -0.973889 2.468061 2.682512
2849 1.226855 -0.410314 0.873846 0.559748 -1.333792 -1.461716 -2.033222 -0.263753 1.053431 -0.113250
1341 0.039772 0.171264 0.741936 -0.222491 0.780881 0.572809 -1.556241 -1.887811 0.315363 1.079125
1993 -1.069495 1.691497 -0.125708 0.587270 -0.682248 -1.634142 -1.660689 -1.486855 0.278539 -0.038517
2131 -0.979105 1.665381 -0.122629 0.671455 -0.724315 -1.688555 -1.692714 -1.338057 0.291497 0.037768
1683 0.529689 -0.023321 0.808001 -0.415022 0.253848 0.814432 -1.361920 -1.927834 0.593727 0.828191
2333 0.368228 1.779688 -0.859057 -0.415518 -0.602746 -1.291066 -1.091335 -1.515118 -0.194105 1.026167
1750 0.296294 -0.386960 0.990075 -0.283471 0.622559 0.624053 -1.429704 -1.886153 0.601430 0.919606
1079 0.339427 -0.349124 1.020122 -0.477374 0.599676 0.636610 -1.533326 -1.976944 0.490242 0.945540
1943 -1.128340 1.586247 -0.045312 0.737284 -0.742538 -1.719353 -1.759951 -1.372930 0.330212 -0.110570
2927 -0.069233 -1.182552 0.707623 0.500227 0.592637 -1.920721 -2.579515 0.154756 0.656738 0.519692
1491 0.086306 -0.296093 0.905790 -0.441486 0.722208 0.635313 -1.566077 -1.909646 0.457236 1.063797
2340 -0.939072 1.627527 -0.088213 0.759735 -0.826568 -1.668326 -1.687557 -1.441525 0.271290 -0.034093
1938 -1.094923 1.668226 -0.095825 0.716556 -0.636606 -1.663047 -1.723189 -1.402007 0.269153 0.014216
2240 -1.007308 1.649668 -0.127192 0.721721 -0.706714 -1.749957 -1.712780 -1.405556 0.168610 0.052488
2073 -0.994733 1.675872 -0.028465 0.752791 -0.752059 -1.670728 -1.687998 -1.465563 0.329583 -0.021188
332 -0.308246 -0.978264 -1.670653 -1.860945 0.141967 -1.351846 -0.836048 -2.432515 -0.177277 0.768522
3449 -0.506958 -0.881102 -1.262438 0.329538 -1.499279 0.136541 -1.276437 -1.191485 1.456396 2.092381
395 -0.943157 -1.078695 0.138169 0.295730 0.686525 -0.710720 -0.582124 -2.059790 1.897556 -0.386257
1761 0.287043 0.536928 1.084909 -0.152927 0.546528 0.591823 -1.391619 -2.172476 0.687518 0.764358
3033 -0.013013 -0.999262 0.560515 0.646440 0.581134 -1.816526 -2.779114 0.204212 0.646963 0.552659
2117 0.233130 1.344607 -0.488598 -0.472779 -0.580053 -1.440474 -1.263475 -1.347801 -0.864047 1.326331
2032 0.247847 1.493281 -0.677045 -0.466082 -0.560973 -1.125344 -1.082930 -1.645150 -0.549788 1.049158
2090 -1.000421 1.629858 -0.076705 0.632173 -0.854384 -1.691422 -1.693547 -1.471518 0.242240 -0.124069
3586 -0.549042 -0.666445 -1.080862 0.355877 -1.226537 0.099750 -1.043052 -0.982656 1.724716 2.070075
2915 0.112130 -0.975437 0.878231 0.205783 0.712874 -1.955668 -2.574423 0.188903 0.715790 0.481146
3680 -0.707732 0.185845 -1.543261 -1.185938 -1.996812 -0.006078 -1.624317 -1.222766 1.944981 0.438288
1842 -0.063301 -0.043901 0.536376 -0.061022 0.559387 0.737270 -1.567693 -2.107056 0.266435 1.045205
3417 -0.083864 -1.057277 0.770549 0.312129 0.639096 -2.138015 -2.565957 0.161053 0.552568 0.505899
703 -0.235361 0.861790 1.049883 -0.170873 -0.136467 -1.525139 -1.008375 -0.420310 2.470953 2.786134
1117 -0.151404 0.104782 0.474695 -0.076738 0.587556 0.806662 -1.497003 -1.956880 0.501018 1.008389
2118 -1.073572 1.637300 -0.075615 0.733274 -0.715677 -1.652041 -1.744459 -1.452016 0.301005 -0.068140
1867 0.535046 -0.361610 0.990296 -0.595781 0.445071 0.674490 -1.205878 -2.184299 0.663454 0.819710
2172 -1.121071 1.648197 0.032654 0.708524 -0.793387 -1.591541 -1.730272 -1.502468 0.257856 -0.065333
1868 -0.055990 0.052670 0.293532 -0.156155 0.958091 0.715154 -1.526137 -1.909286 0.490074 1.342045
2150 -0.977785 1.655321 0.025013 0.728091 -0.771493 -1.610864 -1.727738 -1.421915 0.277001 -0.089124
1330 -0.011269 0.098615 0.463323 -0.199876 0.657706 0.765840 -1.432605 -2.038114 0.583019 1.137128
3185 1.717655 -0.412433 0.857165 0.901774 -1.059085 -1.444954 -1.754136 -0.516920 0.935561 0.378053
1547 0.071899 0.013974 0.559865 -0.396323 0.923431 0.623269 -1.480808 -1.985385 0.450205 1.206460
2088 -1.088975 1.689762 -0.101211 0.736109 -0.683672 -1.633216 -1.708556 -1.428842 0.370724 -0.060406
2201 -1.084728 1.576986 -0.055104 0.761807 -0.773524 -1.688028 -1.652307 -1.518970 0.249989 -0.090567
2755 -0.092779 -1.022123 0.724567 0.632116 0.685568 -1.912564 -2.690532 0.095451 0.495745 0.501117
1267 0.126645 -0.016992 0.911544 -0.312791 0.742749 0.460541 -1.418802 -2.005611 0.189459 1.252886
2748 0.966349 -0.441274 1.018395 0.375168 -1.170442 -1.392018 -2.276176 -0.140654 0.802866 -0.222245
580 -0.150072 -0.096262 0.546907 0.830377 0.859573 -0.370634 -0.477632 -2.046921 1.976702 0.120441
2590 -1.061747 1.519002 -0.075996 0.792868 -0.767188 -1.750670 -1.732687 -1.497691 0.120174 -0.087405
2604 -1.086808 1.640565 -0.136315 0.636661 -0.627255 -1.682418 -1.669983 -1.468513 0.212182 -0.022977
1668 0.012210 0.148474 0.500840 -0.323888 1.009347 0.663035 -1.694646 -1.714153 0.481247 1.340658
1173 0.209632 -0.155046 0.263099 0.378591 0.284025 0.569655 -1.145867 -1.861213 -0.041336 0.870892
2059 -1.066498 1.559955 -0.059279 0.895782 -0.747599 -1.744367 -1.696160 -1.467748 0.293513 -0.097831
2601 -1.014739 1.678892 -0.112403 0.809511 -0.774729 -1.628132 -1.761647 -1.474815 0.279589 -0.029205
815 0.249092 0.762751 0.927892 -0.608020 0.045896 -1.588859 -0.520152 -0.825104 2.379325 2.669920
2901 0.954917 -0.776389 1.241077 0.451103 -1.287944 -1.488892 -1.888261 -0.444155 0.771553 -0.059436
947 0.374390 -0.105312 0.795362 -0.111324 0.701089 0.524800 -1.497300 -1.899590 0.302956 0.919220
1752 0.437515 -0.455491 1.016450 -0.575269 0.588907 0.621220 -1.429225 -1.955068 0.527585 0.937591
2064 -0.988915 1.749359 -0.078748 0.730893 -0.732354 -1.685501 -1.628669 -1.400280 0.326182 0.109065
2738 0.329105 -0.948318 0.984543 -0.236629 0.682731 -2.006088 -2.571251 0.382327 0.786358 0.579565
2564 -1.006446 1.691590 -0.117123 0.903497 -0.694993 -1.704781 -1.763870 -1.344018 0.367934 0.021553
2890 0.022680 -1.045098 0.580393 0.103093 0.672843 -2.155604 -2.542274 0.348389 0.803894 0.568426
2750 -0.101588 -1.061161 0.618225 0.651434 0.610122 -1.872301 -2.722414 0.103833 0.484884 0.542910
695 0.624774 0.862527 0.930256 -0.839089 0.261572 -1.734660 -0.443323 -1.031540 2.455668 2.614023
3924 -0.765379 0.300418 -1.714151 -1.231478 -1.842149 -0.078645 -2.052603 -1.002134 1.786395 0.245741
2268 0.378924 1.309365 -0.412636 -0.741857 -1.227328 -1.249045 -0.961596 -1.892888 -0.716051 0.666001
2624 -0.930346 1.553857 -0.133709 0.905629 -0.720871 -1.699866 -1.725563 -1.337367 0.185246 0.048317
2916 -0.153772 -1.162250 0.567330 0.737165 0.594003 -1.807184 -2.679243 0.064039 0.402528 0.534076
2800 -0.124474 -0.997627 0.601464 0.644125 0.661290 -2.026104 -2.687649 0.155775 0.619871 0.507980
3797 -0.607328 -0.510082 -1.384627 0.401024 -0.865319 0.175818 -1.215984 -0.945586 1.462530 1.976323
1721 0.286545 -0.312797 0.951323 -0.601184 0.525239 0.711897 -1.435988 -2.067134 0.539318 0.882599
2593 -0.976700 1.519949 -0.085953 0.684843 -0.817769 -1.809219 -1.687912 -1.359813 0.110397 -0.046684
1520 0.217192 -0.082391 0.839299 -0.285349 0.264382 0.638766 -1.389750 -2.117338 0.106174 0.802053
1608 0.053855 -0.042528 0.810570 -0.304635 0.555983 0.660384 -1.498394 -2.094894 0.264609 0.991651
1214 0.109836 -0.005584 0.384877 0.171008 0.431631 0.779117 -1.662652 -1.924325 0.110029 1.119445
172 -0.282301 -1.041756 -1.552527 -1.989135 -0.041267 -1.188328 -0.586509 -2.617989 -0.003661 1.045975
3926 -0.522425 -0.442167 -1.286542 0.781834 -2.157619 -0.399987 -1.494769 -0.925448 1.350839 1.624552
2828 1.239229 -0.251295 1.041283 0.861498 -1.187738 -1.471974 -1.991801 -0.259580 1.163778 0.264323
1600 0.200731 -0.511082 0.910415 -0.316743 0.505395 0.682403 -1.385860 -2.040706 0.482079 0.772376
1322 0.280019 0.192194 -0.181107 -0.286808 1.057221 -0.016037 -2.479167 -1.623410 1.186365 -1.044262
3049 1.114604 -0.524174 0.900149 0.865107 -1.358242 -1.434616 -2.035810 -0.303796 1.169717 -0.046899
1675 0.152453 0.156750 0.978607 0.070995 0.172894 0.707161 -1.350150 -2.215954 0.434919 0.787291
2676 -0.196569 -1.188611 0.599495 0.700247 0.615476 -1.821809 -2.780335 0.121111 0.547406 0.630494
2068 0.244763 1.649143 -0.791295 -0.368154 -0.690706 -1.368241 -1.123575 -1.649709 -0.492552 1.022444
1004 0.345100 -0.435616 0.926818 -0.577412 0.607579 0.625129 -1.429644 -2.047884 0.417392 1.046965
1617 0.196990 0.174287 0.845886 -0.373257 0.513127 0.470387 -1.397290 -1.841178 0.018288 1.030226
2292 0.292396 1.547679 -0.581396 -0.300692 -0.694228 -1.171040 -1.111666 -1.614392 -0.592049 1.035929
3396 1.811163 -0.113983 1.084740 0.863608 -0.903661 -1.385008 -1.934504 -0.397916 1.128729 0.562287
2275 -0.943661 1.616511 -0.134503 0.805495 -0.737272 -1.753747 -1.675962 -1.406735 0.287294 -0.062423
1597 0.487247 -0.365453 0.883420 -0.471748 0.560095 0.632430 -1.480198 -1.991860 0.358344 1.000120
856 -0.988065 0.844876 0.905457 -0.978186 -0.427469 -1.263220 -0.610549 -0.999774 2.589110 2.846627
1619 -0.097544 0.133648 0.461247 -0.403961 0.971401 0.736506 -1.618526 -1.885063 0.552414 1.508168
3054 -0.102170 -1.258248 0.487308 0.550265 0.639129 -1.885178 -2.662105 0.126789 0.370862 0.617979
2030 -0.904331 1.764510 -0.089768 0.766125 -0.704715 -1.670385 -1.749424 -1.334874 0.404662 0.064928
1962 -0.999765 1.717712 -0.045764 0.719037 -0.711889 -1.626737 -1.767073 -1.387050 0.219676 0.049933
1946 -1.064920 1.601497 -0.097499 0.867684 -0.708998 -1.762200 -1.712506 -1.339923 0.352515 -0.021175
2910 -0.166453 -1.006873 0.642853 0.619697 0.499764 -1.982208 -2.703123 0.166576 0.594177 0.439544
3324 0.033991 -1.315637 0.445385 0.425243 0.437708 -1.956455 -2.515196 0.140784 0.487594 0.478789
1945 0.135609 1.585582 -0.907237 -0.534591 -0.720640 -1.157863 -1.187477 -1.797204 -0.598593 0.995263
2184 -1.032657 1.586772 -0.143389 0.609363 -0.760424 -1.720119 -1.759282 -1.391342 0.153104 -0.015617
2625 -1.034058 1.573516 -0.048752 0.744546 -0.780081 -1.727856 -1.659495 -1.439691 0.267803 -0.064091
2103 -0.990683 1.637482 -0.037897 0.747789 -0.821617 -1.693455 -1.741799 -1.449632 0.276427 -0.111350
3360 1.298711 -0.485755 0.900197 0.343869 -1.380458 -1.492522 -2.032058 -0.288000 0.719025 0.071482
1125 0.182797 0.102596 0.546907 -0.430725 0.962854 0.661344 -1.580801 -1.904874 0.483464 1.334560
465 -0.846167 -0.974778 -0.080547 0.653348 0.719355 -0.596047 -0.673178 -2.136636 1.701125 -0.350603
3104 0.353709 -0.995393 0.731162 0.012165 0.721371 -2.099435 -2.550518 0.264995 0.807893 0.423862
966 0.138906 0.028227 0.665113 -0.424343 1.040942 0.596367 -1.615880 -1.838550 0.541854 1.387615
1291 0.078742 0.059873 0.849450 -0.324662 0.697358 0.603229 -1.494021 -1.946859 0.414205 1.061439
1573 0.209168 0.365048 -0.296401 -0.200336 1.300625 -0.091468 -2.408719 -1.564538 1.350756 -0.898794
3060 1.670062 -0.164556 0.936288 0.666628 -1.165514 -1.417859 -1.940070 -0.358099 1.005064 0.406020
2586 -0.987459 1.668732 -0.026678 0.802564 -0.705276 -1.662122 -1.686922 -1.460485 0.302996 -0.006812
1416 0.238218 -0.531620 1.090811 -0.496943 0.719640 0.593556 -1.472700 -2.063919 0.563338 0.935242
2323 -0.994862 1.726732 -0.056718 0.805697 -0.711799 -1.660937 -1.691568 -1.388838 0.445488 -0.001287
1172 -0.040939 0.213653 0.579967 -0.143325 0.754233 0.655946 -1.458345 -2.094547 0.385729 1.276811
3902 -0.696312 -0.371386 -1.196226 0.923422 -2.059741 -0.275128 -1.523226 -0.988211 1.403941 1.807751
2414 -0.909929 1.756015 -0.159447 0.824389 -0.725293 -1.655855 -1.724785 -1.391518 0.356339 -0.018914
3348 -0.090064 -1.060299 0.535153 0.666263 0.631573 -1.969641 -2.638974 0.076277 0.514676 0.559912
2600 -0.995889 1.630897 -0.118244 0.783849 -0.735884 -1.661322 -1.709677 -1.449487 0.256263 0.043685
2468 -0.581087 1.875766 -0.226122 0.326316 -0.731875 -1.386533 -1.529830 -1.463784 0.003845 0.313997
2928 -0.034064 -1.141741 0.921552 0.229841 0.802267 -2.071586 -2.542503 0.069749 0.575892 0.455733
3344 1.127306 -0.419135 1.112259 0.637144 -1.443676 -1.322581 -2.215619 -0.338514 0.936487 0.091941
1536 0.846852 0.093096 0.159050 0.062243 1.398081 -0.743561 -0.708609 -2.737972 0.994538 -0.475003
2615 -0.996452 1.625049 -0.108409 0.668639 -0.750234 -1.687876 -1.692011 -1.353937 0.277997 0.000061
1809 0.068046 0.329854 0.232633 -0.392777 0.871772 0.797710 -1.549375 -2.047529 0.565202 1.481103
261 -0.331512 -0.977380 -1.429734 -2.087293 0.040866 -1.159726 -0.599598 -2.720683 -0.002298 1.019025
3558 -0.780274 0.182142 -1.492958 -1.024672 -2.116757 -0.128222 -1.761746 -1.152559 1.861727 0.213163
1917 -1.075467 1.594056 -0.160302 0.824057 -0.787581 -1.781972 -1.798054 -1.375765 0.360257 -0.114703
2290 -0.996125 1.692461 -0.056319 0.776880 -0.744069 -1.699617 -1.749361 -1.421958 0.299765 0.003744
2104 -0.918979 1.743888 -0.038632 0.832593 -0.783413 -1.567549 -1.695792 -1.473887 0.294904 0.026816
3140 1.012615 -0.806190 1.340183 0.282437 -1.313645 -1.333332 -1.909180 -0.400241 0.623215 0.292600
3347 1.226972 -0.440112 1.104642 0.828244 -1.174152 -1.426113 -1.879525 -0.338622 1.005185 0.379386
213 0.060747 -0.571773 -1.996818 -1.753179 0.289925 -1.563568 -1.141166 -1.895559 -0.376026 0.723691
2409 -0.984753 1.762526 -0.112463 0.719255 -0.760281 -1.621609 -1.779084 -1.424973 0.331554 0.044809
2757 0.020135 -1.019390 0.570813 0.763911 0.647221 -1.827786 -2.704159 0.161178 0.602268 0.679020
1864 -0.102422 -0.190529 0.614596 -0.004834 0.697590 0.591098 -1.483618 -2.037254 0.153679 0.962689
113 -0.463916 -0.902890 -1.579139 -2.030944 0.110956 -1.250022 -0.765714 -2.669827 -0.170828 0.996903
567 -0.991946 -0.846529 -0.434265 0.385093 0.087618 -0.232279 -0.368780 -1.437582 2.183924 0.127661
109 -0.291507 -0.932707 -1.477405 -2.060834 0.119550 -1.224156 -0.749718 -2.665784 -0.250246 0.852365
2500 -1.062482 1.582216 -0.125646 0.714332 -0.730258 -1.731467 -1.709120 -1.419325 0.228103 -0.084392
2356 -1.043718 1.643233 -0.062992 0.770917 -0.751991 -1.682736 -1.648217 -1.448052 0.302540 -0.013500
2943 -0.126789 -1.160821 0.643559 0.703370 0.594338 -1.920392 -2.632089 0.112638 0.469756 0.716483
2271 -0.997128 1.589567 -0.036701 0.749407 -0.780765 -1.666303 -1.739602 -1.509656 0.249132 -0.187755
1971 -1.018611 1.689241 -0.085538 0.641948 -0.675238 -1.696041 -1.651423 -1.381636 0.339218 0.022978
1735 0.387507 -0.009722 0.961143 -0.343627 0.459986 0.582276 -1.439718 -1.933276 0.339640 0.866311
1926 0.337533 1.455886 -0.736827 -0.515665 -0.508422 -1.643036 -1.113840 -1.234307 -0.555438 1.203197
784 0.713961 0.853740 0.920014 -0.862884 0.366140 -1.792588 -0.501815 -0.984039 2.400649 2.680169
2326 -1.032222 1.617001 -0.063877 0.699379 -0.780478 -1.685942 -1.717418 -1.363799 0.296488 -0.056684
2395 -0.992117 1.745225 -0.103968 0.636063 -0.647591 -1.715301 -1.782537 -1.270363 0.252069 0.117432
2278 -0.833988 1.615991 -0.163173 0.735093 -0.747185 -1.586418 -1.638261 -1.446280 0.156255 0.000686
2511 0.282121 1.648259 -0.920577 -0.421061 -0.445936 -1.179573 -1.006134 -1.615320 -0.269131 1.007370
2183 0.158118 1.478918 -0.868448 -0.410088 -0.498134 -1.105373 -0.998895 -1.702687 -0.562712 1.012085
1984 -1.000725 1.703311 -0.122421 0.723418 -0.671145 -1.650991 -1.707472 -1.362552 0.292652 0.053957
1563 0.233219 -0.055432 0.746924 -0.174743 0.412370 0.686079 -1.704307 -1.986869 0.091185 0.814869
2037 -1.047439 1.566957 -0.124903 0.670762 -0.641428 -1.673525 -1.626897 -1.549754 0.129320 -0.137539
506 -0.585641 -0.859547 -0.111798 0.927638 0.691639 -0.921236 -0.479728 -2.256351 1.695474 -0.361699
2664 0.032264 -1.104126 0.496932 0.644691 0.646792 -1.812081 -2.720707 0.196844 0.564395 0.621815
2376 -1.027128 1.585539 -0.202223 0.831706 -0.715097 -1.858384 -1.717961 -1.322968 0.339597 -0.055588
2510 0.011236 1.613005 -0.739170 -0.656304 -0.602916 -1.174557 -1.052958 -1.680549 -0.490673 0.996816
1979 -0.965629 1.656953 -0.161995 0.903363 -0.750599 -1.693507 -1.761997 -1.444424 0.321850 -0.043471
2973 1.229328 -0.233038 1.035617 0.520449 -1.440678 -1.324623 -2.269516 -0.166972 1.030040 0.139540
3267 1.257192 -0.415802 0.811892 0.697300 -1.334796 -1.550034 -1.842029 -0.200304 1.144554 0.208671
1048 0.161439 -0.188770 1.014923 0.117277 0.260648 0.623220 -1.498687 -1.875324 0.228427 0.726279
2093 -1.185180 1.539197 -0.030423 0.532822 -0.626020 -1.631786 -1.671553 -1.453683 0.139492 -0.070362
400 -0.722056 -0.918284 0.072240 0.665937 0.674716 -0.588070 -0.574063 -2.179618 2.015190 -0.259726
3640 -0.650188 -0.628533 -1.039861 0.800961 -2.316572 -0.559045 -1.310784 -1.017956 1.472944 1.601909
2777 -0.182857 -1.064187 0.702293 0.716665 0.542360 -1.947511 -2.714598 0.062047 0.385853 0.557185
169 -0.203348 -0.506894 -1.510534 -1.887996 -0.008268 -1.434538 -0.623203 -2.362105 -0.329448 0.850086
2492 -1.076590 1.628854 -0.021025 0.652617 -0.676453 -1.696509 -1.717837 -1.382092 0.244064 0.009434
2139 -0.945652 1.627103 -0.093599 0.717658 -0.829834 -1.669456 -1.714923 -1.369839 0.279171 -0.043863
1479 0.093027 0.256979 -0.393720 -0.039268 1.173121 -0.058704 -2.458004 -1.631945 1.367234 -1.038477
1243 0.104581 -0.060103 0.839896 -0.192929 0.402117 0.739850 -1.433999 -1.990785 0.512023 0.731790
3226 -0.081675 -1.170759 0.557360 0.757517 0.554233 -1.907856 -2.690275 0.078122 0.433157 0.656781
3842 -0.827266 -0.806419 -1.532881 0.339686 -1.421621 0.082959 -1.300906 -1.348096 1.314372 2.000666
3406 1.080648 -0.522098 1.149177 0.344215 -1.266242 -1.056356 -2.102278 -0.418524 0.623660 -0.036246
2381 -0.994112 1.703918 -0.056365 0.814932 -0.697456 -1.613454 -1.706105 -1.446579 0.311178 0.071778
1070 0.939389 0.233363 0.132698 -0.246591 0.882284 -0.418810 -0.986205 -2.661162 1.083545 -0.841739
438 -0.828868 -1.000324 -0.079570 0.492784 0.845272 -0.685772 -0.666498 -2.109743 1.770635 -0.396287
2354 -1.068907 1.651039 0.002697 0.704227 -0.691916 -1.728481 -1.752691 -1.356707 0.227175 0.005692
2509 0.450081 1.648769 -0.620362 -0.326881 -0.647553 -1.162360 -0.970597 -1.581100 -0.303639 1.045569
431 -0.699677 -1.176125 -0.022987 0.537647 0.760072 -0.476473 -0.567063 -2.162078 1.714373 -0.176885
3576 -0.554714 -0.542357 -1.114443 0.865971 -2.267730 -0.427406 -1.436278 -0.942236 1.400762 1.629510
2992 1.220213 -0.316786 1.087240 0.745615 -1.441190 -1.601914 -1.837083 -0.246053 1.003237 0.512104
2331 -0.970571 1.656293 -0.068422 0.767487 -0.694169 -1.720872 -1.703242 -1.383383 0.277252 0.045435
323 -0.314071 -1.062839 -1.481578 -2.008117 0.167035 -1.274860 -0.708610 -2.627051 -0.138136 0.921129
1886 0.417645 -0.153943 0.795024 -0.228258 0.918966 0.463419 -1.468216 -1.887941 0.325205 1.262007
2200 -0.965750 1.566110 -0.073369 0.759742 -0.753679 -1.704165 -1.619287 -1.491926 0.215925 -0.081165
1370 0.004720 0.152308 0.523369 -0.147295 0.886477 0.742918 -1.660245 -1.845636 0.605386 1.504289
800 0.147748 0.758557 0.583904 -0.823827 -0.213232 -1.315936 -0.539074 -0.712135 2.649253 2.544406
2153 0.199053 1.554689 -0.821936 -0.379597 -0.729690 -1.119837 -1.218551 -1.718760 -0.581119 1.009510
1334 0.143128 0.196451 0.748760 0.022045 0.525841 0.456440 -1.279953 -2.225512 0.298317 0.136968
3002 1.231213 -0.854916 1.584316 0.161847 -1.259021 -1.139853 -2.127583 -0.400561 0.432133 1.050200
842 0.648359 0.911303 0.918926 -0.794087 0.192368 -1.668967 -0.480564 -0.979552 2.502011 2.630352
2339 -1.093913 1.608346 -0.039451 0.580387 -0.719392 -1.719648 -1.647400 -1.425583 0.338189 -0.139936
1893 0.631500 0.506561 -0.465103 -0.299224 1.232335 -0.151999 -1.893377 -1.409855 1.934979 -0.617685
953 -0.047164 0.016475 0.341443 0.177901 0.550352 0.769989 -1.302828 -2.179934 0.427910 1.234576
3120 1.084719 -0.392164 1.109848 0.608952 -1.586028 -1.304657 -2.124200 -0.288506 1.012742 0.168162
236 -0.343157 -1.051754 -1.746648 -1.871559 0.285820 -1.304841 -0.910955 -2.496350 -0.209385 1.118729
291 -0.314466 -0.799889 -1.465952 -2.053115 0.192872 -1.546708 -0.874916 -2.339743 -0.437550 0.984130
313 -0.367517 -1.112127 -1.395185 -2.004171 -0.054478 -1.241631 -0.588908 -2.633618 -0.071748 0.853159
728 -0.205434 0.976669 1.212828 -0.074482 -0.073698 -1.649828 -0.921389 -0.492143 2.418552 2.675331
325 -0.434875 -0.978786 -1.489581 -2.238075 0.007948 -1.048355 -0.692977 -2.711905 0.043625 0.993788
2925 -0.132473 -1.213102 0.648096 0.890865 0.629037 -1.906309 -2.710659 0.074277 0.559063 0.507101
2866 -0.175409 -1.103816 0.528664 0.724853 0.595949 -1.818338 -2.671247 0.141919 0.445790 0.656429
3455 -2.062483 -0.760236 -1.799698 -0.019811 -1.232029 -0.328445 -2.435267 -1.035057 0.703187 0.863329
3022 -0.171095 -1.166027 0.574484 0.590407 0.609083 -1.954973 -2.796813 0.103087 0.416123 0.584146
3113 1.252174 -0.401756 1.134429 0.837738 -1.262700 -1.484828 -1.850586 -0.319728 1.101164 0.442810
2471 0.181133 1.674863 -0.618468 -0.453950 -0.639372 -1.098297 -1.093366 -1.749660 -0.503416 1.196128
1966 -0.960449 1.648858 -0.108787 0.756179 -0.646558 -1.817876 -1.620670 -1.403347 0.259525 0.018111
2904 1.091540 -0.696279 1.124662 0.468694 -1.317007 -1.539846 -1.835176 -0.374310 0.773281 0.078310
752 0.620026 0.864297 0.962284 -0.800022 0.153463 -1.658487 -0.436374 -1.099218 2.486834 2.768151
1191 -0.210795 -0.104534 0.568813 0.163002 0.645168 0.615239 -1.544954 -2.069140 0.124626 0.996177
3321 0.833494 -0.662632 1.250028 0.253117 -1.413070 -1.380262 -2.084963 -0.324289 0.717724 -0.118618
2555 0.306878 1.571625 -0.775515 -0.301515 -0.711026 -1.181172 -1.147991 -1.679142 -0.587650 1.081415
3731 -0.553166 -0.501640 -1.216847 0.785625 -2.357181 -0.588970 -1.324910 -1.024945 1.319394 1.794115
2460 -1.084966 1.669449 0.023071 0.672642 -0.730609 -1.666676 -1.727088 -1.397203 0.344985 -0.042881
2404 -1.156424 1.589492 -0.043866 0.702883 -0.759836 -1.695156 -1.712532 -1.523105 0.269872 -0.083832
2102 0.204517 1.527119 -0.595551 -0.623325 -0.735613 -1.149434 -1.124355 -1.685546 -0.671233 1.031078
2909 -0.083977 -1.182836 0.394804 0.654340 0.482811 -1.871248 -2.624609 0.229180 0.490744 0.716350
1712 0.371553 0.106692 0.381608 -0.340013 1.005238 0.663916 -1.581731 -1.928485 0.429650 1.463424
3019 1.230696 -0.544296 1.719719 0.068991 -1.032640 -0.856298 -2.191201 -0.272526 0.489659 1.373877
370 -0.762738 -0.943648 -0.120369 0.430398 0.609446 -0.672031 -0.478970 -2.156134 1.784023 -0.365606
2592 0.144106 1.621864 -0.952671 -0.530140 -0.652382 -1.298905 -1.054141 -1.687926 -0.435227 1.016827
3182 1.630023 -0.183333 1.139569 0.940701 -0.949476 -1.470843 -1.848680 -0.383160 1.069254 0.615032
1083 0.072749 0.320182 0.467330 -0.309747 0.938446 0.698176 -1.660661 -1.808323 0.498412 1.347594
921 0.059094 0.070662 0.935764 -0.202604 0.282565 0.652065 -1.629459 -1.981924 0.067462 0.525206
3514 -0.442384 -0.636579 -1.006811 0.752790 -2.432878 -0.416116 -1.411459 -1.017866 1.338193 1.877155
2045 -0.969788 1.607171 0.000393 0.803993 -0.895544 -1.609906 -1.733196 -1.460435 0.244417 -0.062179
3829 -1.076118 -0.368041 -0.775684 -0.938874 -2.400524 0.072276 -1.319797 -1.707504 1.788494 0.268017
3277 1.043498 -0.538346 1.076729 0.680196 -1.474127 -1.628850 -1.927702 -0.215818 1.150735 0.233958
1871 0.657298 0.457727 -0.591592 -0.515578 1.185120 -0.057682 -1.734058 -1.435189 1.902663 -0.476410
1358 0.147581 -0.080962 0.782692 0.988059 0.775433 -0.080222 -0.880965 -2.127147 1.963950 -0.025692
2553 -1.098860 1.618196 0.021084 0.659750 -0.692598 -1.670106 -1.685319 -1.451080 0.290871 -0.065264
3096 -0.055520 -0.972945 0.496006 0.863576 0.617566 -1.778968 -2.779593 0.144427 0.514143 0.628261
2069 -0.932952 1.741873 -0.200920 0.583496 -0.727052 -1.695440 -1.606565 -1.373385 0.348547 -0.001575
2869 1.382075 -0.198546 1.096967 0.788029 -1.054760 -1.327629 -1.885116 -0.396853 1.063431 0.231249
2867 -0.129681 -1.009603 0.638792 0.811739 0.539762 -1.879535 -2.650298 0.116968 0.547881 0.525798
2020 -1.019906 1.549211 -0.096832 0.798288 -0.743673 -1.750503 -1.708111 -1.464318 0.233625 -0.097777
2630 -1.006992 1.640084 -0.152014 0.755687 -0.804231 -1.651231 -1.796673 -1.578267 0.165981 -0.109515
1661 0.611406 0.607676 -0.423499 -0.492159 1.236983 -0.105295 -1.857436 -1.391081 1.938164 -0.509321
1462 0.206374 0.311399 -0.313850 0.065364 1.210606 -0.035078 -2.664736 -1.545450 1.348451 -0.978661
2939 1.270587 -0.362572 0.918840 0.699935 -1.532664 -1.358883 -1.950197 -0.343241 1.211010 0.105119
1628 0.337003 0.269481 -0.326278 0.143281 1.253131 -0.118893 -2.600905 -1.506621 1.386603 -0.966185
2363 -0.955810 1.564464 -0.015641 0.686518 -0.932216 -1.644046 -1.675403 -1.530351 0.213211 -0.164368
2629 0.262580 1.504840 -0.666475 -0.399023 -0.794985 -0.968542 -1.115655 -1.747129 -0.622375 0.933099
2655 -1.092105 1.551677 0.003095 0.669384 -0.843035 -1.745643 -1.761344 -1.393694 0.256248 -0.137121
2683 0.173604 -1.060006 0.776268 -0.114000 0.738257 -2.141035 -2.537282 0.290174 0.702379 0.530656
118 -0.519014 -0.945265 -1.374571 -2.174163 0.039476 -1.203416 -0.649295 -2.684102 -0.007765 0.785376
3629 -2.150939 -0.643542 -1.921184 -0.136895 -1.147460 -0.398394 -2.316992 -1.063951 0.950324 0.801550
422 -0.719197 -0.679208 0.365016 -0.232210 0.452419 -1.372231 -0.587419 -1.662524 2.339877 -1.020424
2724 1.401326 -0.818196 1.507266 -0.220211 -0.997560 -0.807684 -2.270314 -0.248289 0.472201 1.206954
978 0.200953 -0.102476 0.642017 -0.197718 0.387080 0.767360 -1.508480 -1.999129 0.276740 0.894369
3962 -0.633043 -0.605413 -1.231435 0.218923 -1.413495 0.402241 -1.630888 -1.048437 1.141366 2.105625
1205 -0.256657 -0.098540 0.349599 0.064171 0.574300 0.832274 -1.571666 -2.159379 0.327571 1.120333
3145 1.472435 -0.264655 1.138367 0.839993 -1.198574 -1.541847 -1.742293 -0.358828 1.124150 0.606150
525 -0.659405 -1.146982 0.039146 0.656086 0.588840 -0.459285 -0.660928 -2.285404 1.637280 -0.344383
2138 0.072263 1.466218 -0.858239 -0.474799 -0.578445 -1.128173 -1.127708 -1.710021 -0.632703 0.997947
460 -0.828015 -1.011904 -0.022363 0.782492 0.440153 -0.864330 -0.682219 -2.119125 1.794658 -0.583128
2374 -1.034434 1.660370 -0.079349 0.778659 -0.765487 -1.677625 -1.689304 -1.436685 0.355701 -0.072953
820 0.258730 0.911440 1.087900 -0.493737 0.125583 -1.708474 -0.786321 -0.606113 2.454437 2.597369
2072 0.278875 1.693600 -0.713198 -0.569565 -0.574955 -1.271878 -0.963430 -1.568243 -0.319920 1.125465
1729 0.796705 0.441090 -0.537647 -0.658237 1.116763 0.134672 -1.750892 -1.497381 1.994506 -0.391092
2108 -1.020551 1.623650 -0.019466 0.842622 -0.798090 -1.766888 -1.749180 -1.466820 0.344019 -0.108882
3705 -1.229095 -0.560599 -1.968761 -0.771378 -1.554908 0.050028 -2.558324 -1.089758 0.980600 0.028202
1302 0.180451 0.022208 0.759869 -0.317685 0.826346 0.564973 -1.470485 -1.869153 0.464365 1.266760
2043 -0.984247 1.588141 -0.090236 0.807789 -0.799057 -1.738305 -1.616791 -1.499974 0.267600 -0.028625
2619 -0.997546 1.640790 -0.095454 0.732793 -0.748763 -1.651666 -1.665196 -1.508472 0.335736 -0.120775
2247 0.418292 1.619928 -0.529809 -0.562178 -0.719479 -1.128082 -1.231813 -1.490740 -0.509330 1.090449
3056 -0.178687 -1.141971 0.462058 0.800868 0.518284 -1.979635 -2.587979 0.135720 0.491978 0.550578
2140 -0.995137 1.601651 -0.094731 0.778003 -0.719394 -1.763186 -1.708074 -1.431312 0.267561 -0.041341
3951 -0.754797 0.354806 -1.813089 -1.324751 -1.686229 -0.023332 -1.954030 -1.091951 1.999862 0.254577
3605 -0.605868 -0.720249 -1.140820 0.788985 -2.230936 -0.548285 -1.212939 -1.066072 1.252748 1.607269
374 -0.723410 -1.077020 -0.095731 0.746850 0.620005 -0.734869 -0.544365 -2.107731 1.675870 -0.292730
2463 0.208965 1.481813 -0.706599 -0.515887 -0.678350 -1.130019 -1.160277 -1.644881 -0.678977 1.062249
766 0.608142 0.723402 1.064546 -0.938961 0.317686 -1.782608 -0.506306 -0.949659 2.278152 2.722995
1409 0.015720 -0.081477 0.311753 0.238898 0.572151 0.681813 -1.512962 -2.064865 0.081298 1.017126
3362 0.032739 -1.060574 0.716350 0.230371 0.670848 -2.104887 -2.580264 0.225729 0.711890 0.546196
3256 1.159858 -1.684432 1.662372 -0.164235 -0.874672 -1.640433 -1.392647 -0.793092 0.998671 0.013798
3172 1.590926 -0.142164 1.166429 0.988561 -0.880215 -1.448918 -1.881387 -0.401778 1.093345 0.595280
2872 -0.127998 -0.955376 0.522788 0.580502 0.599536 -1.897691 -2.719521 0.241938 0.517766 0.565316
82 -0.476457 -1.100335 -1.381801 -2.043961 0.072517 -1.236017 -0.649151 -2.737810 -0.073427 0.763341
3982 -2.070761 -1.016898 1.847378 0.452652 -1.956516 -2.108938 -0.686882 -2.376359 0.793655 1.339895
2327 0.364188 1.671755 -1.003133 -0.563464 -0.439290 -1.374790 -0.991833 -1.499376 -0.240886 1.035440
726 0.469488 0.883154 0.990420 -0.758962 0.186651 -1.678857 -0.466438 -1.044072 2.427863 2.680684
2550 -1.211800 1.581200 0.033627 0.377687 -0.663285 -1.670660 -1.665048 -1.455662 0.106572 -0.092004
3702 -0.540328 -0.489324 -1.231071 0.903589 -2.119183 -0.403783 -1.626331 -0.815478 1.315684 1.706819
774 0.085217 0.840608 0.842636 -0.646541 -0.224215 -1.359520 -0.513537 -0.837918 2.557828 2.679705
1688 0.202187 -0.648268 0.695386 -0.085812 0.486942 0.585418 -1.110049 -2.217179 0.471468 0.510071
651 0.020160 -0.224215 0.366578 0.752117 1.104781 -0.479953 -0.475177 -2.229255 1.638821 -0.004634
1156 0.148220 0.101213 0.562115 -0.224342 0.933302 0.596280 -1.430143 -2.089995 0.466179 1.302497
773 0.447406 0.887708 0.951355 -0.700659 0.060564 -1.587766 -0.493199 -0.955836 2.474739 2.643281
1826 0.037497 0.149928 0.462487 -0.329041 0.786810 0.684122 -1.539926 -1.973377 0.366218 1.278808
1032 0.486025 0.432385 -0.230836 -0.833027 1.140270 0.027408 -1.609148 -1.367947 2.045135 -0.438340
2352 -1.035662 1.635657 -0.059212 0.765643 -0.633183 -1.769009 -1.716362 -1.336878 0.311109 0.022125
2124 -1.029240 1.716705 -0.132051 0.792542 -0.710394 -1.624648 -1.765781 -1.439264 0.351180 -0.023416
2423 -1.103779 1.593723 -0.081578 0.720792 -0.721123 -1.602317 -1.738586 -1.488479 0.212005 -0.022130
3342 0.956480 -0.987147 1.350512 0.443005 -1.404192 -1.291680 -2.096883 -0.589273 0.419658 0.027507
3302 1.243994 -0.764536 1.104271 0.612732 -0.928320 -1.114873 -2.042555 -0.480528 0.300764 0.393216
1305 0.539891 0.204605 0.978407 -0.055696 0.262784 0.625666 -1.594219 -1.692701 0.256585 0.939974
1861 0.190421 -0.450724 0.474839 0.004227 0.223841 0.946515 -1.429199 -2.290457 0.424739 0.846706
544 -0.580130 -0.824400 -0.076204 0.757186 0.596910 -0.856905 -0.418166 -2.182995 1.829031 -0.322796
2224 0.230395 1.415426 -0.786096 -0.554120 -0.461547 -1.101335 -1.177261 -1.566124 -0.715141 1.125410
1128 0.069040 -0.245632 0.950992 -0.338854 0.849469 0.448406 -1.308441 -2.011461 0.568018 0.347597
819 -0.017683 0.655914 0.843211 -0.347150 -0.126353 -1.414495 -0.629276 -0.685762 2.443880 2.814734
2913 -0.076620 -1.071259 0.771027 0.604193 0.470821 -1.820394 -2.741889 0.128347 0.551040 0.392567
2033 -1.055341 1.644892 -0.045841 0.759591 -0.832062 -1.603980 -1.711706 -1.469392 0.321003 -0.113043
1810 0.250119 -0.142062 0.785424 -0.538117 0.920491 0.602315 -1.552024 -1.848287 0.563007 1.102163
960 0.245052 0.192446 0.391889 -0.302189 0.941282 0.692311 -1.610441 -1.902569 0.536875 1.456840
2638 -0.987459 1.689682 -0.008520 0.792941 -0.782854 -1.676206 -1.750786 -1.372045 0.319386 0.029729
3568 -0.823954 0.081539 -1.187380 -0.873050 -2.253871 0.197886 -1.727167 -1.470945 1.697522 0.258324
3998 -2.087708 -0.995952 1.888523 0.375816 -1.765560 -1.896539 -0.688899 -2.450763 0.732035 1.351409
2446 -0.953510 1.648003 -0.146372 0.717939 -0.837680 -1.684245 -1.683705 -1.447724 0.324295 -0.112280
3240 1.076121 -0.421511 1.208501 0.186602 -1.422971 -1.167486 -2.260778 -0.332390 0.616461 0.006692
1741 0.141222 -0.000466 0.513312 -0.187616 0.741460 0.679800 -1.477501 -2.014446 0.398091 1.163469
3214 0.982729 -1.356364 1.427499 0.484938 -1.081604 -1.381732 -1.667544 -0.789746 0.378701 0.280267
2038 0.335113 1.350213 -0.617905 -0.512316 -0.449188 -1.426451 -1.293597 -1.309524 -0.786896 1.111031
2578 -0.997240 1.706500 -0.032529 0.722069 -0.792198 -1.699514 -1.791478 -1.321832 0.255696 0.136861
967 0.355945 -0.074127 0.958834 -0.057301 0.200814 0.648229 -1.502855 -1.988662 0.151248 0.841978
3339 -0.156447 -1.133307 0.700337 0.467376 0.646358 -1.977713 -2.636953 0.045093 0.509692 0.386892
3860 -0.545449 -0.547965 -1.215984 0.679229 -2.359214 -0.593921 -1.238538 -1.050156 1.319601 1.797212
2827 -0.211863 -1.051027 0.452399 0.659120 0.552355 -1.983006 -2.675182 0.203915 0.594061 0.400052
1845 0.128790 0.047013 0.683078 0.025231 0.435871 0.647072 -1.341533 -2.088311 0.283293 1.001711
3737 -0.634801 -0.685699 -1.089057 0.843187 -2.157317 -0.309297 -1.332320 -1.161052 1.264177 1.682405
2279 0.166432 1.512636 -0.743595 -0.396669 -0.674888 -1.176988 -1.186536 -1.608720 -0.616555 1.017732
3174 0.004578 -1.025483 0.710121 0.707037 0.620217 -1.969297 -2.703372 0.050718 0.488101 0.484315
514 -0.746272 -0.903353 -0.185724 0.706696 0.721435 -0.624847 -0.479807 -2.226832 1.704835 -0.161002
1789 0.234927 -0.220580 0.821062 -0.532618 0.788461 0.657582 -1.480780 -1.848865 0.580284 1.181094
1918 -0.990887 1.613224 -0.137352 0.789782 -0.758507 -1.618524 -1.667466 -1.535295 0.287686 -0.090736
3873 -0.668116 -0.591590 -1.437258 0.542099 -1.525385 0.265461 -1.484300 -1.379954 1.364198 2.000014
3335 1.157433 -0.690708 1.056794 0.567622 -1.144879 -1.388898 -1.885318 -0.420968 0.962381 -0.114022
1149 0.301786 -0.052686 1.005710 -0.292310 0.463164 0.544475 -1.445794 -1.883024 0.222768 0.948203
2781 1.182080 -0.632519 1.091218 0.830827 -1.086264 -1.390068 -1.609235 -0.469035 0.900354 0.310916
2919 0.051948 -1.338419 0.438417 0.584205 0.564371 -1.931878 -2.712370 0.051070 0.240207 0.465346
2642 0.367505 1.375105 -0.465786 -0.433636 -0.519507 -1.473164 -1.166960 -1.233471 -0.690426 1.227760
1163 0.135999 0.107862 0.509945 -0.363867 0.963239 0.688188 -1.728812 -1.638618 0.555658 1.320276
2302 0.249796 1.411391 -0.688735 -0.280030 -0.850381 -1.206691 -1.223388 -1.612501 -0.704313 0.869573
507 -0.707093 -1.027576 -0.111299 0.725082 0.346408 -0.643635 -0.533106 -2.266040 1.675862 -0.473354
1899 0.374064 0.233681 -0.628610 -0.032000 1.160346 -0.035935 -2.487163 -1.526557 1.216061 -0.966534
1742 0.733709 0.627225 -0.655665 -0.466904 1.118003 -0.049335 -1.893194 -1.506080 1.925403 -0.553297
1530 0.181252 -0.083296 0.811325 -0.474405 0.703536 0.659491 -1.571220 -1.970554 0.402072 1.190816
2149 0.325700 1.540854 -0.600865 -0.508246 -0.696695 -1.114760 -1.237636 -1.506075 -0.645234 1.063076
3692 -0.444050 -0.810237 -1.482483 0.247910 -1.145916 0.287061 -1.447569 -1.009516 1.353027 2.043012
2520 -1.017441 1.592762 -0.076317 0.654972 -0.749835 -1.836173 -1.689137 -1.361324 0.252642 -0.104656
2125 0.274099 1.697174 -0.640366 -0.376706 -0.731765 -1.229877 -1.175983 -1.618812 -0.480309 1.193484
2549 -0.993814 1.672027 -0.048412 0.741998 -0.816232 -1.732240 -1.664174 -1.480681 0.371588 -0.099301
3284 -0.208329 -1.086538 0.553220 0.733803 0.571240 -1.927640 -2.805413 0.122919 0.486302 0.431107
2461 0.202580 1.556519 -0.838135 -0.435184 -0.532746 -1.325825 -1.093401 -1.573180 -0.496242 1.167884
2674 1.311001 -0.508368 0.679905 0.882456 -1.337550 -1.669373 -1.911913 -0.263686 1.081707 0.156020
2920 -0.199307 -1.258505 0.595178 0.807048 0.414345 -1.867337 -2.628790 0.014632 0.319869 0.441599
3027 0.998953 -0.894340 1.346721 0.627174 -1.073287 -1.386425 -1.775485 -0.593222 0.444552 0.212644
2190 -0.998796 1.606263 -0.087586 0.712960 -0.747084 -1.707175 -1.712203 -1.432528 0.270823 -0.091044
1636 0.428738 0.404301 -0.356415 0.077424 1.192733 -0.026136 -2.525282 -1.542913 1.406515 -0.894365
2074 -1.063273 1.723610 -0.069905 0.733777 -0.687670 -1.703474 -1.742833 -1.476222 0.308834 -0.042568
3247 1.138871 -0.422241 0.962102 0.654491 -1.556711 -1.571835 -2.035937 -0.234705 1.185181 0.070049
2112 -0.999614 1.598449 -0.155229 0.836273 -0.809922 -1.746682 -1.710458 -1.429696 0.325696 -0.037055
2864 -0.013509 -1.175274 0.542581 0.778449 0.466981 -1.855983 -2.670073 0.150010 0.463975 0.631930
3674 -0.113472 -0.832319 -1.210553 0.307245 -1.379310 0.414679 -1.502567 -0.927267 1.735238 1.836885
3529 -0.947131 -0.475822 -0.757472 -0.964389 -2.527600 -0.002495 -1.371789 -1.630725 1.669314 0.103053
3794 -0.900855 0.231107 -1.677941 -1.331218 -1.775645 0.031828 -1.866470 -1.074583 1.841631 0.382773
3179 1.603423 -0.347357 0.889366 0.936488 -1.076562 -1.023531 -1.999116 -0.429430 1.026695 0.482303
829 0.556357 0.625777 0.767728 -1.058823 0.638047 -1.881910 -0.596962 -0.849835 2.100792 2.859858
3084 0.268540 -1.025961 0.717673 -0.246876 0.779846 -2.348294 -2.480571 0.334642 0.866333 0.313947
1844 0.397543 0.152427 0.684240 0.777581 0.754242 0.018249 -0.943748 -2.092401 2.072057 -0.087979
2095 -0.893869 1.560421 -0.205561 0.763955 -0.807254 -1.811643 -1.621593 -1.413455 0.167367 -0.038384
2905 -0.245851 -1.080830 0.713076 0.591154 0.618692 -1.815372 -2.801548 0.071966 0.416988 0.515380
1637 0.165743 0.227272 0.932233 0.193502 0.173929 0.675626 -1.422963 -1.875320 0.339796 0.925792
1227 0.287304 0.403318 -0.332661 -0.349280 1.111983 -0.054453 -2.409888 -1.591496 1.411178 -1.024655
1067 0.343818 0.322721 -0.317111 -0.039516 1.070844 0.035205 -2.433674 -1.476717 1.318662 -0.899291
3345 1.066070 -0.510532 0.990446 0.267143 -1.404805 -1.321119 -2.382952 -0.220999 0.691806 -0.248250
3136 1.303409 -1.300992 1.526515 0.150330 -0.770191 -1.214226 -1.628574 -0.809498 0.524208 0.338443
1898 -0.061954 0.088731 0.127683 -0.124322 1.018005 0.753254 -1.589931 -2.027831 0.429306 1.413517
2344 0.449245 1.789094 -0.522541 -0.473081 -0.740943 -1.192152 -0.921612 -1.582635 -0.135889 1.077048
342 -0.419472 -0.925324 -1.415994 -2.151127 0.084965 -1.149382 -0.597611 -2.642785 0.054689 1.085320
3810 -0.564362 0.086509 -1.489264 -1.168944 -2.050545 0.051451 -1.999376 -1.048286 1.869508 0.129577
1480 0.640027 -0.053046 0.654100 -0.029040 0.688374 0.530763 -1.697340 -1.504877 0.252360 1.284404
3722 -1.896823 -0.968513 -1.805941 0.107530 -1.254860 -0.438098 -2.378282 -0.938912 0.715219 0.773422
2253 -0.989806 1.683756 -0.076322 0.739437 -0.829665 -1.690511 -1.656320 -1.462341 0.344769 -0.058904
2005 -1.015061 1.612242 -0.131565 0.750508 -0.643019 -1.682278 -1.687989 -1.449302 0.188161 0.061268
2121 -0.936185 1.699265 -0.092794 0.784485 -0.761968 -1.610749 -1.726493 -1.335819 0.351549 0.036543
1623 0.276450 -0.517330 1.017777 -0.597408 0.675154 0.639777 -1.508422 -2.071966 0.488336 0.976284
3146 1.266566 -0.439008 0.799037 0.588714 -1.383830 -1.567702 -1.952130 -0.254678 1.047414 -0.015951
2308 -1.033128 1.630371 -0.118442 0.764374 -0.787362 -1.717328 -1.683241 -1.375495 0.367863 -0.113199
2504 -0.970145 1.563573 -0.161660 0.717796 -0.793968 -1.722187 -1.607997 -1.478167 0.268249 -0.144427
2654 -1.073135 1.520563 -0.006821 0.690625 -0.876756 -1.748539 -1.752524 -1.500218 0.188509 -0.239722
3017 1.433910 -0.543523 1.103090 0.731329 -1.125849 -1.607709 -1.702227 -0.447353 0.785268 0.525894
2319 0.127951 1.560054 -0.727399 -0.396235 -0.852698 -1.239003 -1.110057 -1.838582 -0.581811 0.983258
2408 -0.925851 1.630946 -0.085074 0.736132 -0.803536 -1.635631 -1.692636 -1.408086 0.182720 -0.018269
2299 -0.908946 1.630337 -0.131531 0.815398 -0.782220 -1.562687 -1.762661 -1.462478 0.196534 -0.007851
3945 -1.074809 -0.532813 -0.515422 -0.807182 -2.556219 0.041046 -1.419525 -1.690870 1.839970 0.049765
1596 0.296217 0.361108 -0.365802 -0.013976 1.095772 -0.034997 -2.556150 -1.682467 1.377253 -1.114133
2780 1.321952 -0.786668 0.901271 0.122899 -1.316172 -1.343992 -2.035372 -0.424401 0.696946 -0.255134
2567 0.149029 1.580152 -0.895068 -0.301200 -0.708534 -1.119738 -1.220590 -1.704157 -0.561162 0.920194
2491 0.082539 1.606523 -0.801179 -0.385206 -0.491207 -1.224078 -1.175135 -1.571660 -0.532593 0.999605
1857 0.325272 0.299480 -0.491000 -0.191307 1.019931 -0.049814 -2.596769 -1.545509 1.289739 -1.031909
3625 -0.705860 -0.715571 -1.540882 0.311036 -1.257724 0.305988 -1.456346 -1.209583 1.421328 1.876786
780 0.148990 0.801135 1.150050 -0.253759 -0.006605 -1.635542 -0.594591 -0.877460 2.333529 2.801376
2551 -0.982663 1.674152 -0.079709 0.948451 -0.720218 -1.657874 -1.708800 -1.457272 0.380383 0.024473
378 -0.777386 -0.812552 -0.075505 0.739544 0.808010 -0.740945 -0.541848 -2.116675 1.775046 -0.227199
3233 1.025903 -0.664291 1.722435 -0.231317 -1.126721 -0.936226 -2.216485 -0.314941 0.097500 1.168696
2873 0.111072 -0.850675 0.955385 0.015595 0.679720 -2.161004 -2.588640 0.283667 0.767557 0.450211
2482 -1.123114 1.630546 -0.107941 0.734231 -0.631683 -1.717290 -1.724883 -1.366098 0.359266 -0.020038
1483 -0.251086 0.295175 0.179514 -0.000358 0.681629 0.742079 -1.494800 -2.060732 0.235776 1.142226
3119 0.109329 -0.806876 0.938339 0.108962 0.634186 -2.107624 -2.649036 0.223007 0.680475 0.291427
2561 -0.972603 1.794363 -0.145808 0.619470 -0.717015 -1.564020 -1.707100 -1.422600 0.297924 0.065163
2276 -0.968959 1.610970 -0.026204 0.789259 -0.753273 -1.665625 -1.734017 -1.446970 0.226810 -0.006935
2174 0.185713 1.458744 -0.472925 -0.709184 -0.615140 -1.244263 -1.221015 -1.529369 -0.812574 1.223119
3195 -0.045791 -0.999834 0.553555 0.689418 0.523229 -1.773580 -2.722651 0.144723 0.414578 0.642727
524 -0.764687 -0.910462 0.150058 0.611965 0.686985 -0.637729 -0.529889 -2.048559 1.883564 -0.198681
2294 0.462895 1.713932 -0.545815 -0.616194 -0.605298 -1.208609 -1.067032 -1.551885 -0.356239 1.209089
3070 1.108131 -0.363148 1.057263 0.611208 -1.524770 -1.385932 -2.050465 -0.309274 1.146139 -0.031823
2370 -1.031629 1.629569 -0.052572 0.784436 -0.783805 -1.675591 -1.728910 -1.458427 0.228257 -0.019955
3918 -1.051296 -2.228766 -0.960707 -0.730433 -1.611530 0.000960 -2.636108 -0.491094 1.331131 0.766591
2154 -1.049191 1.574373 -0.040303 0.634974 -0.702121 -1.741149 -1.659982 -1.386533 0.288468 -0.089987
2573 -1.046209 1.738401 -0.037571 0.636858 -0.730701 -1.608120 -1.696428 -1.478752 0.334980 -0.007766
3239 1.084266 -0.306773 0.917849 0.720437 -1.503493 -1.519036 -2.101150 -0.211630 1.201116 -0.001329
2071 0.034239 1.512684 -0.880595 -0.494877 -0.578242 -1.027090 -1.090905 -1.692193 -0.576487 0.918944
3106 1.055114 -0.285368 1.119180 0.505447 -1.528011 -1.274336 -2.351845 -0.227053 0.921060 0.028863
2862 0.003090 -1.033218 0.917997 0.169116 0.792211 -2.166730 -2.765240 0.072021 0.587588 0.174215
1574 0.320073 0.004735 0.636258 0.972837 0.837523 -0.329911 -0.696662 -2.396675 1.765144 -0.120601
2969 -0.165374 -1.054455 0.736854 0.714113 0.483668 -1.870299 -2.768792 0.164770 0.483176 0.609077
3274 1.282216 -0.672682 1.121633 0.908123 -0.986285 -1.546496 -1.798214 -0.523992 0.478295 0.431268
1339 0.416185 -0.509610 1.049259 -0.539015 1.028053 0.367066 -1.511917 -2.023902 0.355725 1.093594
1685 -0.022316 -0.146221 0.840188 0.038331 0.347757 0.740160 -1.448400 -2.202581 0.373836 1.075064
3900 -0.722847 0.287998 -1.471851 -1.322862 -1.930772 -0.084493 -1.855218 -0.982713 1.954669 0.338459
997 -0.209541 0.143931 0.349473 0.098955 0.658476 0.746506 -1.520995 -2.147727 0.231082 1.278605
1959 0.303352 1.617436 -0.947153 -0.279062 -0.658355 -1.428844 -1.004695 -1.533321 -0.329988 0.907929
2257 -1.023974 1.575575 -0.031431 0.664616 -0.732850 -1.828031 -1.634103 -1.379622 0.285147 -0.077131
3525 -0.498544 -0.953705 -1.229302 0.406707 -1.119161 0.216685 -1.221295 -1.045457 1.511438 1.744110
2649 0.180713 1.454186 -0.718273 -0.511874 -0.507233 -1.097232 -1.062654 -1.659137 -0.651462 1.020896
1347 0.335350 0.272079 -0.374096 -0.306956 1.243075 -0.043364 -2.274979 -1.581795 1.275723 -0.854117
1703 1.217691 0.514487 0.336330 -0.537536 1.095184 -0.588360 -1.180475 -2.800378 0.806688 -0.717577
1947 0.311043 1.753351 -0.676054 -0.517921 -0.471644 -1.276449 -0.884934 -1.526293 -0.144894 1.105641
3419 1.117848 -0.554000 1.067866 0.882516 -1.281404 -1.478681 -1.778168 -0.368718 1.164076 0.214390
2241 0.300721 1.690445 -0.580228 -0.392900 -0.841970 -1.147532 -1.226944 -1.691942 -0.544686 1.129691
417 -0.844720 -1.000074 -0.018993 0.808005 0.576970 -0.572108 -0.694356 -2.151515 1.825154 -0.344256
515 -0.607512 -0.946049 0.137920 0.526704 0.609629 -0.729364 -0.515587 -2.030815 1.979552 -0.373368
2495 -0.970053 1.629061 -0.066788 0.816482 -0.865431 -1.676810 -1.740116 -1.551559 0.271271 -0.145989
13 -0.287593 -0.957378 -1.456671 -2.177379 0.064039 -1.137981 -0.733954 -2.660007 -0.058989 1.010762
1475 0.185801 0.165453 -0.230339 0.118001 1.239520 -0.092238 -2.283985 -1.536882 1.537425 -0.916282
2359 -1.150997 1.579756 -0.034256 0.821518 -0.719864 -1.681710 -1.822459 -1.469797 0.237590 -0.093742
1643 0.196659 -0.003243 0.998197 -0.433273 0.334360 0.722508 -1.664892 -1.832049 0.278952 0.806453
641 -0.091873 0.074728 0.564097 0.655933 1.076534 -0.350064 -1.051287 -1.842835 1.801864 -0.469403
3553 -2.110445 -0.753786 -1.728315 -0.161406 -1.197825 -0.305034 -2.387239 -0.982579 0.689117 1.114147
2911 -0.043094 -1.103612 0.553473 0.769028 0.495014 -1.815131 -2.751989 0.107506 0.362915 0.660336
2546 -0.973074 1.600811 -0.085851 0.756406 -0.771545 -1.724208 -1.706500 -1.330280 0.190449 0.034315
503 -0.802708 -1.159411 0.081823 0.626585 0.579279 -0.434012 -0.770260 -2.114492 1.848867 -0.344157
1231 0.132661 0.329638 -0.335119 -0.168813 1.071548 0.067813 -2.532668 -1.566400 1.350166 -0.963530
1221 0.589084 0.311110 -0.268477 -0.208203 1.049955 -0.206352 -2.140215 -2.200589 0.761757 -1.282177
2430 -0.953585 1.639040 -0.099563 0.787161 -0.803033 -1.725775 -1.702047 -1.452666 0.310333 -0.047085
3149 -0.050221 -1.004697 0.588535 0.661498 0.716853 -1.747315 -2.837664 0.097710 0.436976 0.573539
2521 -0.927099 1.712824 -0.049597 0.800858 -0.790358 -1.719549 -1.774505 -1.311959 0.363598 -0.005346
2991 1.303482 -0.204363 0.987584 0.941166 -1.416566 -1.625983 -1.990469 -0.198436 1.246880 0.397433
3366 1.098807 -0.693518 1.724956 0.114583 -1.079569 -1.061077 -2.099930 -0.239752 0.325961 1.364613
2040 -0.830850 1.810012 -0.152276 0.757102 -0.728571 -1.545665 -1.713224 -1.310965 0.352026 0.185289
391 -0.714094 -0.952634 -0.156762 0.736952 0.461510 -0.598695 -0.538536 -2.087928 1.901221 -0.254047
2559 -0.951901 1.618614 -0.070523 0.796785 -0.790480 -1.671767 -1.814905 -1.476364 0.203945 -0.133380
492 -0.762209 -0.893867 -0.040202 0.764428 0.823596 -0.554690 -0.764330 -2.099574 1.826415 -0.331654
1609 -0.157293 -0.225578 0.572274 0.061655 0.310876 0.841123 -1.538345 -2.206590 0.263806 0.696510
1920 0.169338 1.617295 -0.801471 -0.321080 -0.678726 -1.137361 -1.276097 -1.621609 -0.622580 1.094241
2176 0.374050 1.471970 -0.349146 -0.471158 -0.481410 -1.444552 -1.284582 -1.168726 -0.742400 1.282969
1373 0.747529 0.521809 -0.685960 -0.778192 1.204544 -0.106875 -1.623874 -1.912389 1.731469 -0.586698
3299 1.130616 -0.569532 1.012832 0.175105 -1.505169 -1.287114 -2.298396 -0.390576 0.585325 -0.321605
2937 1.488520 -0.048827 1.142107 0.898161 -1.037400 -1.428732 -1.948961 -0.269472 1.223290 0.589961
1611 0.146866 0.114535 -0.330121 -0.035513 1.047876 0.060031 -2.619419 -1.668866 1.133132 -1.089764
2122 -0.997158 1.626319 -0.011050 0.743645 -0.841708 -1.668093 -1.645084 -1.499797 0.316630 -0.068016
1590 0.544641 0.276480 0.898153 0.161174 0.287979 0.501821 -1.578129 -1.826618 -0.029988 0.898370
1003 0.608839 -0.201634 0.864262 -0.576611 0.395631 0.651378 -1.421545 -2.021445 0.340405 0.964213
3617 -0.849653 -0.153194 -0.990234 -0.855673 -2.210838 0.345534 -1.581353 -1.432414 1.801357 0.421419
810 0.263668 0.854626 0.651185 -0.818677 -0.178305 -1.334321 -0.371045 -0.910670 2.560994 2.540014
3540 -0.481571 -0.883769 -1.414206 0.448306 -1.129538 0.350117 -1.508197 -1.090322 1.378235 1.898975
1344 0.322189 -0.684782 0.943786 -0.472025 0.607765 0.724993 -1.374631 -2.070786 0.727245 0.889879
2880 -0.211944 -1.188289 0.637330 0.693450 0.487065 -1.851108 -2.690058 0.088263 0.438301 0.480626
542 -0.772520 -1.050010 -0.002215 0.703083 0.680104 -0.625497 -0.648282 -2.011262 1.915073 -0.215652
1630 0.855323 0.098141 -0.058856 -0.377073 1.016730 -0.282249 -0.968486 -3.016206 0.942291 -0.694552
1366 0.959690 0.358749 0.226362 -0.363181 1.014574 -0.311957 -1.082838 -2.838724 0.970232 -0.697268
3528 -0.745681 -0.520521 -1.146681 0.908664 -2.416973 -0.569732 -1.538312 -0.978146 1.397039 1.523170
2419 0.438885 1.596971 -0.183021 -0.520059 -0.543821 -1.348431 -1.294549 -1.254566 -0.633066 1.253965
1288 0.192500 0.285929 0.215033 -0.369414 1.013343 0.748956 -1.635466 -1.937461 0.586662 1.348680
456 -0.913294 -1.230584 -0.149128 0.676212 0.517763 -0.415516 -0.763574 -2.214231 1.779282 -0.410176
3297 1.274571 -0.372872 0.814830 0.795900 -1.264413 -1.607377 -1.884332 -0.269699 1.211853 0.110815
2853 1.143661 -0.377206 0.824616 0.730784 -1.526327 -1.574513 -1.975411 -0.226493 1.092974 0.120613
3353 1.308677 -0.658345 1.277967 0.612024 -1.227312 -1.380779 -1.815964 -0.611511 0.538944 0.424675
436 -0.827334 -0.729759 -0.061887 0.648848 0.971410 -0.766678 -0.422803 -2.033504 1.716052 -0.024388
1271 0.122530 0.210078 0.199253 -0.192904 1.040521 0.731618 -1.700488 -1.872485 0.499213 1.356048
2348 -0.922989 1.607651 -0.142723 0.717518 -0.850547 -1.740251 -1.665703 -1.369583 0.268523 -0.049612
2083 -1.023420 1.601614 -0.108471 0.751402 -0.709613 -1.592332 -1.726445 -1.444909 0.184423 -0.038097
2084 -0.937432 1.691315 -0.139256 0.620454 -0.638521 -1.779286 -1.639579 -1.343751 0.309888 -0.020268
3263 1.719985 -1.270206 0.781998 0.080613 -0.410559 -0.393155 -2.254773 -0.659105 0.294558 0.280423
1986 -1.027745 1.630636 -0.036485 0.633918 -0.774346 -1.911645 -1.637114 -1.380508 0.343285 -0.098417
3833 -0.648643 0.325778 -1.765967 -1.259004 -1.932840 -0.070186 -1.964540 -1.034499 1.885574 0.389643
1929 -1.018868 1.625522 0.023874 0.847260 -0.682798 -1.765795 -1.775962 -1.317920 0.357950 0.011323
3782 -0.663930 -0.228557 -0.848024 -0.993630 -2.308964 0.127838 -1.772143 -1.142530 1.762790 0.107850
104 -0.454420 -0.999872 -1.645939 -1.984583 0.205186 -1.281032 -0.629879 -2.653251 0.054780 1.100342
3947 -0.718332 0.168915 -1.568498 -1.267814 -1.930135 0.060087 -1.858756 -1.209537 1.937886 0.165785
1298 0.132233 0.258885 -0.393406 -0.050919 1.312179 -0.024728 -2.574691 -1.639220 1.131898 -0.919087
3169 1.185809 -0.415832 0.855473 0.650547 -1.595896 -1.628521 -1.884391 -0.264902 1.307563 0.011017
3433 -0.187321 -0.926754 0.910492 0.152027 0.686627 -2.172442 -2.576430 0.190749 0.638685 0.370486
2617 0.273746 1.632768 -1.022065 -0.482589 -0.668679 -1.417159 -0.913032 -1.621700 -0.178859 1.076733
1795 0.359165 -0.320309 0.942671 -0.604734 0.508105 0.679341 -1.378287 -2.000869 0.559526 0.852437
2223 0.210887 1.609678 -0.751659 -0.443637 -0.604536 -1.125365 -1.119948 -1.758085 -0.520818 1.123669
2180 0.193240 1.495862 -0.629703 -0.402284 -0.680612 -1.013352 -1.129122 -1.693237 -0.660236 1.101266
3115 1.313697 -0.518229 1.221685 0.786128 -1.231525 -1.454526 -1.776184 -0.531424 1.180141 0.172607
2936 1.349881 -0.255633 1.151038 0.623497 -1.248498 -1.427329 -1.951730 -0.300567 0.982011 0.363180
1427 0.395598 0.173415 0.582792 0.442973 0.851940 0.054997 -1.063300 -1.957180 2.142797 -0.200717
2063 -0.980832 1.632621 0.026033 0.617974 -0.800491 -1.705262 -1.618771 -1.323407 0.254392 0.096058
1449 0.475923 0.280505 0.863993 -0.096014 0.710963 0.554982 -1.584886 -1.753545 0.465878 1.228808
3411 1.543887 -0.587365 0.970999 0.650236 -1.083794 -1.372697 -1.742494 -0.493890 0.953398 0.297389
1515 0.596601 0.495514 -0.520480 -0.545204 1.143432 -0.054605 -1.830808 -1.377002 1.777398 -0.614705
2796 1.347118 -0.338637 1.148441 0.924244 -1.232607 -1.580907 -1.782998 -0.391133 1.137466 0.462939
3117 0.237525 -1.302821 1.075507 0.912291 -0.117837 -1.700528 -2.403006 -0.194777 0.392316 0.026906
3884 -0.552713 -0.619119 -1.257046 0.696352 -1.845060 -0.158848 -1.347527 -1.109249 1.327135 1.810723
3542 -0.741196 -0.267641 -0.834348 0.649652 -2.414891 -0.216431 -1.845551 -0.769495 1.333967 1.786514
2539 -1.043618 1.680407 -0.115024 0.669651 -0.781948 -1.652444 -1.692444 -1.515087 0.297882 -0.113351
1290 0.127716 -0.435070 1.047633 -0.121616 0.360797 0.639966 -1.421693 -2.186579 0.394105 0.677627
2313 -0.564813 0.989191 -0.642237 -0.338516 -0.702922 -3.029411 -1.318538 -0.770450 -0.657299 1.326665
53 -0.031003 -1.217988 -2.398821 -1.382457 0.929457 -1.569236 -1.645610 -1.533068 -0.176054 0.792467
1948 0.241597 1.519202 -0.605313 -0.467527 -0.780014 -1.171226 -1.110363 -1.762271 -0.660660 1.085312
3518 -0.480845 -0.571167 -1.249947 0.767444 -2.453168 -0.593860 -1.496620 -0.960748 1.212978 1.663804
2689 -0.090834 -1.092607 0.672787 0.725913 0.600837 -1.934625 -2.524990 0.112540 0.511473 0.640945
2433 -1.041855 1.552060 -0.083644 0.703084 -0.709833 -1.760812 -1.735085 -1.351493 0.190262 -0.089862
2127 0.283974 1.454689 -0.575985 -0.552349 -0.700135 -1.184775 -1.138243 -1.630507 -0.656438 0.954372
2994 0.060716 -0.767493 0.859551 0.095711 0.802061 -2.155257 -2.685419 0.247073 0.722682 0.394213
1338 1.089390 0.276850 0.013714 -0.424292 0.895791 -0.456871 -1.016397 -2.755239 1.016428 -0.904692
3098 -0.064534 -1.114131 0.585912 0.687115 0.657284 -1.812101 -2.760130 0.071882 0.429352 0.511122
1819 0.440840 -0.328610 1.025566 -0.518237 0.288946 0.718238 -1.413210 -1.895961 0.478801 0.802698
2894 1.631118 -0.326185 1.126720 0.954807 -0.947557 -1.401042 -1.715935 -0.502428 1.043866 0.560123
2940 -0.107745 -1.091797 0.694583 0.661491 0.616339 -1.969292 -2.641143 0.054981 0.406159 0.494758
1242 0.338317 -0.680605 1.003948 -0.597138 0.714092 0.636428 -1.406976 -2.065120 0.694272 0.850873
1465 0.543980 1.097376 -0.445814 0.375786 -0.309437 -0.583332 -0.864559 -1.765163 -0.752969 1.000116
2386 -1.075606 1.585412 -0.009261 0.707193 -0.744386 -1.789077 -1.647352 -1.462395 0.286755 -0.110810
2189 -0.372449 1.670916 -0.470771 -0.189244 -0.398077 -1.132740 -1.303468 -1.610170 -0.574048 0.682234
2250 0.326038 1.574354 -0.640519 -0.597365 -0.847158 -1.108597 -0.976557 -1.760905 -0.515342 1.103661
3332 1.513564 -0.203620 1.011227 0.927445 -1.102321 -1.463883 -2.026204 -0.251635 1.068347 0.558084
2989 1.120131 -0.418173 1.208427 0.230173 -1.334522 -1.171115 -2.108534 -0.344339 0.856404 -0.031727
3077 1.296787 -0.773157 1.305337 -0.352395 -1.105323 -0.823246 -2.661888 -0.028195 0.050720 1.287891
419 -0.629631 -0.847809 -0.201798 0.236506 0.179324 -0.457079 -0.184224 -2.615278 1.840287 -0.373525
708 -0.227783 0.666734 0.506756 -0.673317 -0.241190 -1.244300 -0.592396 -0.595055 2.513448 2.672202
3475 -0.804346 -0.304387 -1.304919 0.921564 -1.777495 -0.191243 -1.629153 -0.901612 1.422826 1.579863
423 -0.931840 -0.836272 -0.139565 0.543737 0.840575 -0.629561 -0.549418 -2.110799 1.788319 -0.165135
3826 -0.695516 0.306836 -1.815110 -1.273015 -1.852379 0.057839 -2.090924 -1.105504 1.826636 0.284277
2351 0.293516 1.604893 -0.698684 -0.404208 -0.726381 -1.103934 -1.295973 -1.698512 -0.689087 1.015747
329 0.467549 -1.416581 -1.636494 -1.494392 0.119968 -1.580408 -0.644319 -1.960146 -0.175505 0.894888
402 -0.684967 -1.004354 -0.200196 0.683083 0.521030 -0.778563 -0.567968 -2.244331 1.699710 -0.474451
2575 -0.968953 1.639567 -0.154743 0.756052 -0.628028 -1.672562 -1.707109 -1.494278 0.127289 0.002199
2212 -1.025248 1.641267 0.002604 0.668103 -0.788527 -1.826836 -1.739318 -1.328763 0.269306 -0.027960
2194 0.191550 1.622869 -0.613255 -0.506661 -0.857657 -1.159887 -1.185410 -1.687281 -0.554611 1.144712
2706 -0.028379 -1.140374 0.478805 0.615659 0.521769 -1.836102 -2.531546 0.156098 0.396756 0.707870
3869 -0.770270 0.034466 -1.492777 -0.936068 -2.063548 0.043445 -1.812653 -1.279326 1.644132 0.216328
2053 0.284498 1.803849 -0.909805 -0.412371 -0.549676 -1.342191 -1.092553 -1.560919 -0.253924 1.079018
3858 -0.535853 -0.634421 -1.174975 0.748221 -2.166064 -0.497552 -1.293776 -0.959482 1.297400 1.781198
1282 0.764827 0.469976 -0.621013 -0.551042 1.252658 -0.030931 -1.762909 -1.510725 1.852427 -0.380139
2698 -0.142949 -0.968777 0.670153 0.535540 0.575778 -1.904927 -2.695927 0.223713 0.662750 0.535957
2398 -0.329955 1.796950 -0.769186 -0.705080 -0.271634 -1.270309 -1.175617 -1.851880 -0.566388 1.061254
1964 0.082506 1.231562 -0.388379 -0.302601 -0.523328 -2.332898 -1.351959 -0.954101 -0.971692 1.448471
3921 -1.946570 -0.690383 -1.978760 -0.238459 -1.348757 -0.385871 -2.530482 -0.947508 0.647478 0.858581
3841 -0.495367 -0.810066 -1.566807 0.405661 -1.314678 0.022482 -1.332406 -1.124419 1.568194 2.092851
2451 0.299174 1.678372 -0.726659 -0.553863 -0.490318 -1.187901 -0.910239 -1.653648 -0.308935 1.044799
3162 1.150385 -0.640296 1.853474 -0.100163 -1.039822 -0.925738 -2.126542 -0.393922 0.304377 1.177359
1320 0.258653 0.000365 0.648809 1.019884 0.878307 -0.194928 -0.829655 -2.181286 2.004528 -0.048490
2485 -1.033606 1.693952 0.060286 0.783198 -0.815095 -1.575917 -1.720979 -1.509110 0.311736 -0.016000
1820 0.657009 0.442435 -0.765728 -0.566577 1.201872 -0.033844 -1.739316 -1.347359 1.964433 -0.343542
312 -0.033548 -1.008726 -0.527592 -3.493916 0.531571 -1.050196 -2.106000 -1.377804 0.105562 0.825355
4014 -2.022969 -1.052159 1.848453 0.497828 -1.757676 -1.898946 -0.694064 -2.574892 0.604907 1.303621
2338 0.275052 1.685533 -0.883341 -0.261399 -0.677640 -1.071543 -1.169328 -1.780667 -0.495309 1.027273
2169 0.321555 1.595226 -0.536295 -0.486280 -0.806623 -1.139140 -1.142068 -1.683388 -0.572276 1.189611
1502 0.696170 0.617049 -0.290463 -0.589046 1.242980 -0.025725 -1.803228 -1.510879 1.694062 -0.438843
754 0.250527 0.818417 1.145601 -0.368088 0.022526 -1.652911 -0.543020 -0.895335 2.359937 2.700433
3599 -1.944697 -0.703994 -2.007208 -0.201490 -1.241120 -0.426712 -2.446918 -0.993396 0.646854 0.918529
3464 -1.069177 -0.639718 -0.499894 -0.709282 -2.514112 0.209364 -1.341844 -1.725325 1.695231 0.351965
1261 0.760956 0.431075 -0.624646 -0.735515 1.033584 0.113920 -1.764154 -1.405456 1.894309 -0.413886
1066 0.719961 0.582253 -0.573539 -0.672344 1.124245 -0.016179 -1.733243 -1.588767 1.938560 -0.476179
934 0.048981 0.049273 0.994693 -0.354807 0.672189 0.691082 -1.603237 -1.848696 0.677624 0.714171
2039 0.079333 1.448777 -0.919767 -0.681263 -0.723374 -1.237910 -1.131562 -1.789777 -0.671081 1.082026
2334 -0.964370 1.743472 -0.169953 0.538187 -0.620676 -1.679801 -1.601921 -1.451437 0.224160 0.050062
696 0.537856 0.751299 0.847937 -0.737116 0.251460 -1.690438 -0.468398 -0.933213 2.371123 2.721745
2763 0.030020 -1.197013 0.555073 0.533330 0.544122 -1.929711 -2.574644 0.206766 0.646763 0.563765
952 0.082066 -0.121060 1.086269 -0.592737 0.653935 0.561750 -1.466699 -1.990777 0.455970 1.106865
2646 -1.030275 1.622456 -0.109177 0.790881 -0.799928 -1.687445 -1.698658 -1.439492 0.192321 -0.041980
3526 -1.730627 -0.595735 -1.809183 0.436534 -1.232243 -0.277517 -2.062502 -0.969586 0.855455 1.234522
1605 -0.069714 0.152323 0.357921 -0.062192 0.787921 0.732629 -1.489194 -1.988213 0.479387 1.417935
3651 -0.248133 -0.671174 -1.523481 0.530834 -1.259519 0.150747 -1.234823 -1.126581 1.459920 1.901463
849 -0.173770 0.983942 1.036739 -0.594302 -0.018293 -1.605275 -0.947712 -0.464136 2.548195 2.550276
1289 0.087391 0.259160 0.499800 -0.295969 0.729156 0.572722 -1.289184 -1.935658 0.287250 1.210047
2469 -0.992125 1.768699 -0.117761 0.789350 -0.649303 -1.622290 -1.728322 -1.432844 0.368540 0.072082
1024 0.276877 0.208810 0.369284 -0.326150 1.080044 0.583736 -1.627133 -1.861249 0.420738 1.350081
128 -0.142908 -1.234544 -1.488344 -1.940043 0.030976 -1.164441 -0.682122 -2.654590 -0.114560 0.791426
760 0.484815 0.758332 0.874180 -0.717086 0.155929 -1.630834 -0.472153 -0.929810 2.392710 2.680722
2729 0.285147 -0.653011 1.067243 -0.254815 0.543333 -2.064544 -2.557910 0.423750 0.819468 0.430164
2988 -0.033228 -1.002721 0.974250 -0.029296 0.621333 -2.083058 -2.679337 0.181041 0.614499 0.274184
2307 -1.138466 1.697323 -0.065990 0.747061 -0.680036 -1.644737 -1.790515 -1.454341 0.355965 -0.057241
1709 1.147390 0.402317 0.159268 -0.343293 0.815061 -0.427352 -0.946676 -2.939369 0.994427 -0.721886
211 -0.437905 -0.897254 -1.610758 -2.076629 0.117897 -1.161714 -0.592651 -2.642708 0.161164 0.829611
1181 0.318822 -0.329369 0.896973 -0.661347 0.780940 0.580719 -1.391137 -1.977662 0.579076 1.088378
3087 1.208076 -1.397945 1.744466 -0.226909 -0.874024 -1.524861 -1.370964 -0.693234 0.991240 0.277938
408 -0.792618 -1.263832 0.049262 0.713548 0.623233 -0.365935 -0.867775 -2.243546 1.887830 -0.412352
3064 -0.131164 -1.104307 0.631088 0.856437 0.583658 -1.815403 -2.803451 0.051079 0.426757 0.585962
718 0.019124 0.995935 1.047736 -0.257404 0.080306 -1.783877 -1.040016 -0.297911 2.419706 2.589322
3687 -0.446425 -0.495622 -1.052992 0.740529 -2.289452 -0.406475 -1.241644 -1.085774 1.326499 1.722119
3378 1.544641 -0.183604 0.970920 0.922225 -1.191312 -1.635624 -1.738116 -0.375804 1.127193 0.481532
3355 1.375000 -0.183439 1.081710 0.419963 -1.464905 -1.274796 -2.149970 -0.353223 0.847853 0.067359
1380 0.006881 0.138284 0.405715 -0.386278 0.947902 0.691567 -1.513867 -1.857318 0.546795 1.370131
2086 -0.992905 1.622497 -0.107286 0.757720 -0.721212 -1.615150 -1.751539 -1.514417 0.160396 -0.016472
1505 1.605486 -0.727399 0.172267 0.649173 -0.211770 0.235117 -1.690531 -0.830688 0.278929 0.570083
1080 0.238388 0.174004 0.540679 0.669493 0.778433 0.120198 -0.955277 -2.080084 2.017997 -0.061893
3738 -1.047727 -0.593982 -0.620763 -0.811741 -2.496418 0.011919 -1.243938 -1.712534 1.718755 0.213580
2028 0.255292 1.555158 -0.557728 -0.294021 -0.753416 -1.184075 -1.188389 -1.620541 -0.596644 1.141320
432 -0.572314 -1.044093 -0.145907 0.694448 0.310043 -0.660871 -0.545145 -2.223269 1.830560 -0.533854
2912 0.071063 -1.108778 0.577494 0.621708 0.573292 -1.932434 -2.678100 0.155764 0.487204 0.582801
1388 -0.222512 0.157437 0.383158 -0.007090 0.678595 0.816260 -1.622903 -2.275490 0.340344 1.209961
2946 0.549383 -1.436643 0.934571 0.680085 0.144318 -1.516712 -2.512942 -0.137671 0.467935 0.122706
2109 -0.949692 1.664629 -0.036247 0.612637 -0.830349 -1.708099 -1.637654 -1.448233 0.197776 -0.044020
1273 0.621070 0.411224 -0.461011 -0.754968 1.231667 -0.067655 -1.593081 -1.576838 1.884570 -0.553895
3381 1.408519 -0.300341 0.811660 0.840154 -1.215921 -1.635046 -1.683037 -0.261712 1.262556 0.397515
1100 0.198653 0.327215 -0.420822 -0.169424 1.157054 -0.078416 -2.678628 -1.551080 1.088861 -1.087469
2196 0.160089 1.548467 -0.757480 -0.487972 -0.523511 -1.173386 -1.260464 -1.602836 -0.681416 1.038450
3108 -0.215518 -0.973981 0.521023 0.861777 0.577455 -1.757168 -2.879750 0.169258 0.338020 0.816518
334 -0.261158 -0.749226 -1.506638 -2.037315 0.089598 -1.326771 -0.658238 -2.544405 -0.217297 0.985214
1237 0.100026 -0.134987 0.620969 0.819614 0.768032 0.133905 -0.794287 -2.108900 1.855505 0.201760
2143 0.283276 1.479211 -0.204139 -0.760810 -1.323033 -1.032204 -0.827136 -1.992607 -0.526893 0.708362
2985 -0.124984 -0.933230 0.535033 0.831698 0.603655 -1.966278 -2.865981 0.170581 0.543690 0.501162
1997 -0.963931 1.493557 -0.079638 0.784877 -0.901484 -1.776024 -1.701916 -1.497392 0.112117 -0.109204
2597 0.306701 1.484052 -0.817405 -0.349102 -0.752074 -1.111909 -1.159211 -1.664998 -0.613410 0.969367
957 0.203653 0.214556 -0.439105 -0.115958 1.199059 -0.092400 -2.377101 -1.549963 1.293706 -1.006682
2052 0.307686 1.506431 -0.570897 -0.434935 -0.722809 -1.192180 -1.128116 -1.622905 -0.644654 1.210872
1160 -0.271352 -0.012138 0.481112 0.355552 0.540268 0.718157 -1.469430 -2.016425 0.356509 1.061274
787 -0.217024 0.981736 0.960884 -0.284708 0.087665 -1.761654 -1.213802 -0.141472 2.418069 2.582980
3486 -0.874627 0.153380 -1.930346 -1.291010 -1.775410 -0.212848 -1.926758 -1.081772 1.871060 0.238694
3293 -0.107434 -0.942087 0.931340 0.022596 0.625368 -2.213511 -2.531500 0.254425 0.703169 0.361753
493 -0.563631 -1.338747 0.044276 0.766810 0.454223 -0.393937 -0.733528 -2.292307 1.837592 -0.372493
3711 -0.589693 0.265706 -1.670110 -1.175296 -1.718885 0.139824 -1.895768 -1.069663 1.925351 0.274227
3184 -0.051720 -0.980015 0.388639 0.660883 0.411196 -1.776130 -2.630960 0.289013 0.457736 0.649513
3764 -0.884586 -0.421717 -0.948957 -0.929280 -2.057348 0.271959 -1.690098 -1.451409 1.971151 0.137145
1495 0.698654 0.455067 -0.609419 -0.603428 1.111679 0.053380 -1.825943 -1.417536 1.871071 -0.432947
1049 0.379525 -0.824072 0.996091 -0.230309 0.410893 0.625926 -1.398669 -1.925782 0.452018 0.643288
942 0.694247 0.583862 -0.769734 -0.627696 1.168925 -0.023337 -1.567083 -1.414650 1.938520 -0.323556
2616 0.232827 1.532791 -0.302485 -0.541572 -0.910873 -1.111401 -1.102866 -1.697325 -0.679657 1.012808
1469 1.583483 0.109088 -0.138334 -0.543791 0.627729 -0.360684 -0.968897 -2.738197 0.989359 -0.720213
3327 1.253468 -1.354597 1.282610 0.519608 -0.892578 -1.670732 -1.373619 -0.826307 0.366151 0.536037
3073 -0.054217 -0.993490 0.889881 0.242300 0.555061 -2.092557 -2.576708 0.204651 0.498541 0.492826
1272 0.530788 0.053210 0.922871 -0.155177 0.321144 0.629156 -1.664944 -1.683669 0.122504 0.865323
1075 0.221404 -0.651968 1.074286 -0.184136 0.359718 0.723917 -1.237531 -2.230227 0.752126 0.747636
3385 1.457138 -1.525158 1.202087 0.077746 -0.877304 -1.149531 -1.476027 -0.787884 0.827522 0.127882
1359 -0.059441 0.069188 0.342890 0.112849 0.581194 0.830049 -1.521702 -2.156767 0.366544 1.306321
1052 0.851067 0.460081 0.217937 -0.068771 1.199715 -0.400096 -0.862220 -3.131291 1.006969 -0.425527
3557 -0.605259 -0.390911 -1.071999 0.793271 -2.364312 -0.421292 -1.385824 -1.049667 1.431032 1.623139
2666 -0.056983 -1.035396 0.711498 0.498546 0.652195 -1.869105 -2.721829 0.081672 0.488882 0.367259
2458 0.194479 1.650019 -0.959028 -0.669193 -0.459152 -1.276739 -1.022271 -1.620769 -0.343992 1.026911
3997 -2.071366 -0.973433 1.889701 0.468574 -2.058104 -2.092963 -0.781340 -2.413026 0.692184 1.433586
3224 0.984915 -0.548114 1.161747 0.390181 -1.430014 -1.400190 -2.211514 -0.253483 0.692367 0.037448
2643 0.208370 1.473331 -0.717147 -0.322469 -0.652576 -0.964067 -1.199368 -1.693568 -0.712031 1.175280
2810 -0.010701 -1.124187 1.100922 0.253852 0.617310 -2.123610 -2.417076 0.079531 0.716067 0.297465
1753 0.019801 -0.135894 0.876371 -0.040730 0.397740 0.675410 -1.619656 -2.071002 0.205774 0.761793
2508 0.167836 1.475705 -0.742374 -0.461376 -0.598558 -1.118567 -1.154126 -1.699449 -0.702648 1.072269
2115 -1.016397 1.562434 -0.156663 0.830749 -0.771182 -1.736332 -1.686242 -1.438815 0.247297 -0.105062
2332 0.353674 1.723946 -0.571484 -0.329040 -0.651224 -1.149901 -1.219379 -1.666203 -0.525650 1.172669
1148 0.040805 0.131874 -0.304731 0.016905 1.246103 -0.214012 -2.283427 -1.500018 1.426191 -1.049456
3822 -0.865428 0.221526 -1.973285 -1.269371 -1.778188 -0.187074 -2.013606 -1.157669 1.789250 0.062269
3089 1.256363 -0.380522 0.813859 0.195873 -1.144373 -1.462848 -2.541623 -0.148347 0.627552 -0.245449
3403 1.591023 -0.648133 1.213864 0.507643 -0.942038 -1.312200 -1.923871 -0.525784 0.543027 0.512942
1159 0.867826 0.460204 -0.022876 -0.473304 0.987536 -0.380459 -1.198750 -2.849207 1.031943 -0.903132
224 -0.598377 -0.859077 -1.585502 -1.835829 0.227594 -1.338103 -0.789939 -2.490698 -0.253299 0.808583
2582 0.375377 1.577081 -0.668568 -0.420655 -0.774808 -1.156287 -1.201389 -1.670610 -0.616656 1.150808
3416 1.273951 -0.437736 0.853320 0.677390 -1.607000 -1.671954 -2.049782 -0.294546 1.093565 0.041496
1026 0.230412 -0.032307 1.097854 0.258364 0.398272 0.470379 -1.418690 -1.973945 0.225988 0.788233
3261 1.608113 -0.192048 1.087418 0.920449 -1.108474 -1.450492 -1.804604 -0.395384 1.049189 0.744939
1652 0.420683 -0.384654 0.809660 -0.713531 0.924745 0.569587 -1.397489 -2.030272 0.566101 1.145122
2203 0.279101 1.525623 -0.511650 -0.735472 -0.754293 -1.109673 -1.092993 -1.760380 -0.649131 1.041299
1576 -0.027323 0.059113 -0.302486 -0.223457 1.058064 -0.012618 -2.641344 -1.465990 1.114100 -1.144313
1426 0.233075 0.328326 -0.317445 0.004593 1.152824 0.015238 -2.673590 -1.588883 1.320356 -0.967649
