34 128
1 -0.026969 -0.206728 0.169980 -0.045721 0.004971 -0.175117 0.039754 0.092259 0.014447 0.111935 -0.060549 0.087294 0.103608 -0.228069 0.084920 -0.245028 -0.025039 -0.198509 0.087979 -0.077377 0.257801 -0.026329 0.030864 0.086824 0.074510 0.040464 0.009881 0.203510 0.087999 0.108139 -0.098572 0.089558 -0.079470 0.074456 -0.102504 -0.196856 0.120675 0.108383 0.111347 -0.099613 -0.146921 0.017349 0.083391 0.146679 -0.171723 0.169093 -0.034281 -0.068690 0.003986 0.180220 -0.142084 0.131452 0.024377 0.214947 -0.235133 -0.088283 -0.088298 0.003998 -0.115474 -0.046518 0.182009 -0.191373 -0.043456 0.065193 -0.054116 -0.054820 -0.071631 -0.000661 -0.045830 -0.236484 -0.119354 -0.054204 -0.029833 -0.068527 0.165194 -0.027955 0.174776 -0.057228 0.007918 -0.136820 -0.100888 -0.110026 -0.031158 -0.080265 -0.177360 0.052107 0.131887 -0.080609 0.057701 -0.001683 0.101959 0.004286 0.091193 -0.103305 -0.179694 0.075576 -0.120870 -0.212984 0.098372 -0.021948 -0.107282 0.054369 -0.121061 -0.017420 0.012713 0.083416 0.207902 0.021708 -0.011526 -0.140875 -0.031019 -0.010579 -0.027798 0.087675 -0.127013 0.060419 -0.074290 0.121955 -0.113795 -0.107929 -0.067229 -0.123616 0.080376 -0.255839 -0.133796 -0.032383 0.034595 0.063259
34 -0.005314 -0.123681 0.125136 -0.019784 -0.012732 -0.131531 0.105567 -0.047735 -0.069419 0.131636 -0.099427 0.045647 0.145177 -0.218901 -0.052536 -0.140770 -0.009318 -0.147723 0.039771 0.030356 0.290128 -0.024875 0.073266 0.112168 -0.016124 -0.025681 -0.016266 0.129290 -0.004955 0.176337 -0.061814 0.129576 -0.061186 0.014564 -0.176305 -0.186138 0.183114 0.134550 0.031383 -0.160715 -0.257780 0.102015 0.023811 0.093943 -0.102833 0.202078 -0.011114 -0.058319 -0.053067 0.142804 -0.059854 0.239782 0.059443 0.101523 -0.211163 -0.106807 -0.116873 -0.085928 -0.096572 -0.027647 0.173948 -0.139652 -0.092779 0.077426 0.046121 -0.187091 -0.102457 -0.045443 -0.048926 -0.154346 -0.063953 -0.032793 -0.014426 -0.032571 0.078972 -0.095901 0.063586 0.007199 0.001869 0.029854 -0.081287 -0.185873 0.024479 -0.142096 -0.134931 0.194787 -0.032319 -0.068991 -0.072241 -0.030731 0.060784 0.070972 0.083432 -0.071714 -0.088081 0.139973 -0.129613 -0.059989 0.069224 -0.122549 -0.183651 0.058974 -0.116723 -0.011366 0.040802 0.095093 0.244861 0.015948 0.004110 -0.044927 0.026822 -0.104138 -0.044868 0.067802 -0.058704 0.022296 -0.121894 0.149764 -0.065351 -0.023616 -0.062742 -0.096292 0.006875 -0.233448 -0.023635 0.122985 -0.026726 0.028868
33 -0.009510 -0.137831 0.125128 -0.023630 -0.008635 -0.138687 0.090186 -0.022301 -0.042772 0.123955 -0.083959 0.052408 0.134023 -0.219401 -0.024167 -0.150283 -0.014919 -0.152800 0.036676 0.012634 0.281640 -0.023995 0.066599 0.107936 -0.003754 -0.019671 -0.023035 0.132284 0.009217 0.163891 -0.063863 0.125402 -0.056455 0.020424 -0.168944 -0.190557 0.163016 0.130633 0.034450 -0.143321 -0.233785 0.086620 0.029910 0.088904 -0.116238 0.198670 -0.015062 -0.056130 -0.046554 0.142479 -0.073527 0.227279 0.050203 0.109954 -0.211637 -0.099472 -0.110640 -0.070931 -0.093548 -0.022848 0.176120 -0.151245 -0.079414 0.081668 0.027463 -0.163741 -0.086082 -0.036533 -0.047438 -0.160297 -0.063618 -0.033765 -0.014821 -0.035178 0.087226 -0.081793 0.076183 -0.005022 0.000775 -0.003796 -0.078243 -0.160612 0.014987 -0.129979 -0.142624 0.162946 -0.007400 -0.069705 -0.050158 -0.027350 0.073422 0.062268 0.090984 -0.070414 -0.093391 0.128602 -0.125384 -0.087479 0.082547 -0.103918 -0.173001 0.054808 -0.124613 -0.004716 0.043263 0.090892 0.240325 0.018373 0.008569 -0.065250 0.015118 -0.087601 -0.041571 0.063474 -0.071301 0.031445 -0.115517 0.140610 -0.073032 -0.047436 -0.062241 -0.105965 0.023483 -0.248055 -0.045923 0.096468 -0.027015 0.032013
3 -0.019510 -0.165853 0.147532 -0.033260 -0.003264 -0.150018 0.068344 0.029312 -0.021108 0.116935 -0.069249 0.067225 0.111733 -0.221750 0.025732 -0.196166 -0.015643 -0.177800 0.061406 -0.032004 0.261814 -0.023727 0.044531 0.101811 0.038524 0.006894 -0.006603 0.167125 0.049260 0.141429 -0.079696 0.101004 -0.069462 0.048805 -0.134055 -0.192767 0.145358 0.123250 0.072059 -0.119296 -0.187576 0.050034 0.054805 0.119887 -0.143109 0.183390 -0.018769 -0.062469 -0.025168 0.162167 -0.100296 0.174363 0.033128 0.159806 -0.219475 -0.097686 -0.099385 -0.034947 -0.104659 -0.033761 0.169117 -0.162132 -0.059700 0.074025 -0.012459 -0.111642 -0.079078 -0.016911 -0.045017 -0.201477 -0.090091 -0.041159 -0.027542 -0.048721 0.129575 -0.056128 0.124510 -0.030793 0.005773 -0.067265 -0.092143 -0.130752 -0.006238 -0.102833 -0.159213 0.110820 0.062807 -0.074782 -0.000851 -0.018148 0.083194 0.034038 0.089318 -0.084250 -0.140394 0.104786 -0.126991 -0.145011 0.092650 -0.065073 -0.143993 0.056831 -0.128183 -0.013866 0.028493 0.093872 0.229748 0.018304 0.000235 -0.106277 -0.002067 -0.051186 -0.035511 0.077350 -0.098956 0.048802 -0.099820 0.135917 -0.087718 -0.076689 -0.068392 -0.122775 0.053196 -0.260980 -0.094928 0.034882 0.007048 0.051126
2 -0.012361 -0.171717 0.151881 -0.035425 -0.003084 -0.157132 0.068315 0.037030 -0.025607 0.120475 -0.074854 0.072999 0.124037 -0.229196 0.028254 -0.205780 -0.024134 -0.171870 0.064363 -0.033737 0.270106 -0.023063 0.049030 0.096569 0.032545 0.015626 -0.003112 0.172537 0.053071 0.138701 -0.082522 0.103161 -0.075136 0.054526 -0.133397 -0.189410 0.148862 0.114922 0.078373 -0.124302 -0.185941 0.054862 0.058776 0.122339 -0.142705 0.180781 -0.028532 -0.065168 -0.021137 0.159800 -0.106024 0.171390 0.041233 0.171511 -0.227577 -0.095538 -0.098182 -0.032153 -0.110744 -0.037305 0.177994 -0.167868 -0.063513 0.064834 -0.010732 -0.107262 -0.086883 -0.022378 -0.051016 -0.204082 -0.096917 -0.044997 -0.019116 -0.056283 0.130218 -0.052360 0.131816 -0.033290 0.004569 -0.066184 -0.094200 -0.145904 -0.012481 -0.106568 -0.160050 0.117812 0.063866 -0.078347 0.007110 -0.016142 0.089385 0.035619 0.089422 -0.096871 -0.148592 0.106053 -0.132135 -0.155721 0.086741 -0.062576 -0.141616 0.053550 -0.121334 -0.016810 0.023388 0.086397 0.231443 0.024697 -0.009231 -0.104840 -0.008697 -0.050814 -0.035824 0.078301 -0.104949 0.046053 -0.100278 0.139905 -0.098682 -0.076333 -0.068991 -0.122725 0.053753 -0.264864 -0.087436 0.037236 0.013490 0.051183
32 -0.009191 -0.125550 0.115043 -0.024292 -0.017335 -0.133305 0.106721 -0.055334 -0.062186 0.132491 -0.093026 0.047838 0.144486 -0.221152 -0.054455 -0.133557 -0.006026 -0.156219 0.029741 0.037038 0.293662 -0.021401 0.069004 0.120261 -0.019787 -0.036794 -0.031812 0.124825 -0.007409 0.179369 -0.055832 0.130651 -0.049416 0.008064 -0.194075 -0.196608 0.184452 0.148601 0.023920 -0.165043 -0.261315 0.100885 0.014513 0.083046 -0.114179 0.210325 -0.008401 -0.047895 -0.055943 0.136374 -0.059018 0.252634 0.053434 0.094024 -0.214146 -0.109972 -0.113953 -0.091521 -0.099664 -0.020773 0.174181 -0.141646 -0.087834 0.093269 0.035800 -0.188378 -0.100145 -0.039212 -0.051262 -0.158495 -0.062305 -0.025525 -0.014854 -0.032350 0.077135 -0.097145 0.051683 0.007980 -0.000599 0.024612 -0.083123 -0.173640 0.031614 -0.136759 -0.138518 0.191214 -0.034806 -0.068290 -0.071947 -0.041694 0.065100 0.075085 0.095262 -0.065402 -0.077086 0.136271 -0.126006 -0.058462 0.073418 -0.127022 -0.186620 0.057588 -0.129936 -0.006552 0.054236 0.106243 0.257706 0.013908 0.009628 -0.046080 0.028145 -0.110549 -0.041659 0.070531 -0.061707 0.027730 -0.128506 0.152778 -0.053341 -0.037754 -0.068001 -0.112996 0.007352 -0.260493 -0.029638 0.126001 -0.042366 0.033477
4 -0.015353 -0.171917 0.155105 -0.034008 0.001512 -0.159838 0.055853 0.051462 -0.014626 0.114899 -0.066609 0.074080 0.119105 -0.226308 0.041798 -0.210710 -0.022968 -0.176497 0.068836 -0.041726 0.262554 -0.024653 0.040163 0.090612 0.043902 0.024192 -0.001121 0.178546 0.061651 0.127215 -0.088866 0.096546 -0.074592 0.055369 -0.121880 -0.189570 0.143035 0.114863 0.083919 -0.112060 -0.173820 0.040431 0.066203 0.131867 -0.142148 0.175133 -0.028198 -0.068342 -0.019880 0.159605 -0.109874 0.155998 0.036129 0.177307 -0.223300 -0.090600 -0.095178 -0.025486 -0.105106 -0.043129 0.180918 -0.171308 -0.055692 0.064321 -0.015184 -0.091427 -0.085019 -0.015218 -0.044814 -0.207167 -0.098453 -0.043315 -0.021437 -0.061099 0.139849 -0.047813 0.140994 -0.034506 0.001716 -0.076798 -0.089996 -0.138487 -0.016458 -0.097958 -0.161982 0.099431 0.083332 -0.080584 0.017779 -0.007969 0.087311 0.024883 0.084816 -0.097348 -0.152830 0.099312 -0.129998 -0.167884 0.089046 -0.054431 -0.135257 0.054473 -0.118124 -0.009429 0.016623 0.087038 0.219485 0.023497 -0.009146 -0.115449 -0.006899 -0.042927 -0.033930 0.080264 -0.106054 0.051425 -0.095013 0.134117 -0.101076 -0.080606 -0.064875 -0.120795 0.057889 -0.261966 -0.102296 0.021486 0.020772 0.056544
14 -0.017033 -0.170977 0.147968 -0.037238 0.000070 -0.146188 0.053956 0.043522 -0.010800 0.111823 -0.069401 0.071769 0.104563 -0.209000 0.044035 -0.194872 -0.021725 -0.168509 0.063676 -0.046093 0.250488 -0.020238 0.040322 0.088738 0.040921 0.020153 0.002427 0.168032 0.048822 0.122319 -0.077661 0.095870 -0.068340 0.051220 -0.110498 -0.177409 0.126855 0.107362 0.076187 -0.107566 -0.167708 0.043667 0.061275 0.119123 -0.137048 0.169170 -0.022458 -0.057880 -0.014564 0.159374 -0.108631 0.153406 0.030435 0.166598 -0.207480 -0.088553 -0.095155 -0.019480 -0.099233 -0.040285 0.167502 -0.164463 -0.048628 0.058752 -0.022428 -0.086648 -0.071925 -0.017275 -0.041505 -0.196904 -0.094732 -0.040269 -0.027736 -0.049312 0.131945 -0.042544 0.131751 -0.035653 0.001276 -0.082508 -0.087621 -0.118880 -0.011837 -0.087780 -0.157813 0.091595 0.074307 -0.073002 0.017168 -0.009441 0.084481 0.022781 0.084636 -0.086480 -0.142115 0.095094 -0.115700 -0.152395 0.086643 -0.048228 -0.121724 0.050380 -0.114459 -0.011290 0.014950 0.078756 0.206828 0.021729 -0.008652 -0.107616 -0.015698 -0.037453 -0.037141 0.075016 -0.097512 0.047560 -0.090805 0.124018 -0.097614 -0.074992 -0.062699 -0.114565 0.060038 -0.245354 -0.094321 0.015222 0.013334 0.050346
24 -0.000691 -0.107693 0.115712 -0.017139 -0.018887 -0.124180 0.113196 -0.073889 -0.072750 0.136145 -0.096907 0.037963 0.153642 -0.220007 -0.076250 -0.118810 -0.009793 -0.142294 0.025608 0.048101 0.296722 -0.023252 0.077863 0.126124 -0.031647 -0.039013 -0.031251 0.108809 -0.025311 0.189216 -0.056308 0.138458 -0.053727 -0.005315 -0.195483 -0.190780 0.189989 0.141095 0.012311 -0.174498 -0.274901 0.118421 0.007639 0.076560 -0.092280 0.214131 -0.009535 -0.046132 -0.063881 0.131561 -0.042259 0.268949 0.057635 0.078215 -0.202672 -0.105238 -0.118251 -0.103946 -0.092530 -0.019151 0.173562 -0.133637 -0.093132 0.085346 0.057480 -0.211407 -0.103858 -0.047025 -0.053851 -0.136000 -0.046708 -0.025153 -0.012226 -0.025357 0.060973 -0.110646 0.037211 0.013423 -0.002584 0.058160 -0.072333 -0.186365 0.036844 -0.148339 -0.134781 0.209171 -0.066582 -0.064339 -0.093354 -0.038583 0.056468 0.085172 0.090083 -0.061128 -0.063891 0.153520 -0.126009 -0.033271 0.070992 -0.142092 -0.203971 0.063715 -0.119913 -0.002607 0.052782 0.103716 0.257907 0.016089 0.012765 -0.029988 0.040413 -0.126078 -0.050697 0.062395 -0.054499 0.017801 -0.137983 0.155447 -0.053960 -0.014430 -0.063547 -0.101879 -0.004007 -0.253080 -0.007024 0.155396 -0.046181 0.026345
28 -0.008465 -0.124271 0.124891 -0.023702 -0.015435 -0.129769 0.102396 -0.049419 -0.065803 0.130395 -0.090072 0.048342 0.144777 -0.217074 -0.055057 -0.138442 -0.010736 -0.149000 0.037620 0.033675 0.281974 -0.023434 0.067959 0.115234 -0.018974 -0.025140 -0.026643 0.125109 -0.001211 0.175319 -0.060760 0.129910 -0.054121 0.014327 -0.180799 -0.193657 0.181205 0.137417 0.029150 -0.159156 -0.251181 0.093643 0.019882 0.089290 -0.106181 0.200239 -0.017457 -0.052172 -0.057536 0.133502 -0.062015 0.239855 0.057863 0.092884 -0.203624 -0.103710 -0.113972 -0.090744 -0.101152 -0.023335 0.171299 -0.140732 -0.084673 0.082121 0.043955 -0.183310 -0.100587 -0.038292 -0.054254 -0.154152 -0.061532 -0.027219 -0.014063 -0.036787 0.076980 -0.094393 0.057114 0.008269 -0.002715 0.030624 -0.081272 -0.183671 0.027268 -0.138316 -0.139821 0.193051 -0.031216 -0.068882 -0.070368 -0.033779 0.065634 0.070459 0.085828 -0.072568 -0.082548 0.135265 -0.132833 -0.063600 0.076493 -0.126583 -0.194056 0.063610 -0.126676 -0.008187 0.050417 0.104959 0.258496 0.021137 0.008685 -0.054120 0.029624 -0.108441 -0.048302 0.068434 -0.065374 0.021973 -0.132899 0.151997 -0.064242 -0.037124 -0.067374 -0.110504 0.008741 -0.260558 -0.033932 0.124589 -0.031176 0.034418
7 -0.024493 -0.212126 0.156812 -0.046870 0.003088 -0.164904 0.024683 0.113240 0.049022 0.097466 -0.045857 0.096330 0.079317 -0.215025 0.121975 -0.243862 -0.029778 -0.206635 0.081116 -0.098843 0.239710 -0.030768 0.022234 0.082672 0.099494 0.036666 0.003482 0.193986 0.091399 0.089335 -0.085345 0.081795 -0.074621 0.067204 -0.081912 -0.185059 0.092701 0.101529 0.110220 -0.077747 -0.120911 0.007478 0.092004 0.141087 -0.185487 0.165101 -0.022885 -0.065117 0.022327 0.185208 -0.154453 0.113643 0.008916 0.222800 -0.223317 -0.081977 -0.077101 0.019210 -0.099122 -0.043929 0.175196 -0.190264 -0.019840 0.068510 -0.081760 -0.023640 -0.054664 0.009952 -0.036323 -0.250252 -0.123414 -0.050066 -0.047363 -0.063295 0.183515 -0.009558 0.181894 -0.064170 0.002930 -0.179742 -0.101834 -0.059353 -0.038140 -0.052095 -0.182463 0.003482 0.160268 -0.075965 0.077694 0.005938 0.110556 -0.009759 0.102745 -0.089674 -0.186155 0.063623 -0.096606 -0.235055 0.100289 0.008436 -0.075998 0.051208 -0.128941 -0.016617 -0.000229 0.067291 0.180133 0.018305 -0.002379 -0.155798 -0.041167 0.024697 -0.026743 0.076254 -0.134373 0.071943 -0.056779 0.102069 -0.117487 -0.115663 -0.061894 -0.117121 0.106000 -0.241187 -0.163324 -0.072516 0.044116 0.067464
6 -0.025819 -0.213827 0.162126 -0.041542 0.003008 -0.170911 0.040939 0.096055 0.032946 0.110218 -0.052805 0.093617 0.091863 -0.227042 0.102442 -0.243401 -0.029785 -0.214041 0.081437 -0.085438 0.258914 -0.031985 0.029967 0.086592 0.088201 0.026971 0.001980 0.191291 0.083572 0.113694 -0.087845 0.088464 -0.070374 0.063179 -0.100362 -0.198683 0.115564 0.121442 0.099727 -0.097759 -0.149275 0.023054 0.087720 0.136467 -0.190119 0.182702 -0.020846 -0.069911 0.012440 0.191083 -0.147374 0.141692 0.013484 0.212148 -0.228390 -0.095263 -0.088114 0.002994 -0.103961 -0.050379 0.188379 -0.192888 -0.031443 0.075325 -0.066466 -0.054394 -0.067704 0.001037 -0.043045 -0.249968 -0.117459 -0.052262 -0.044794 -0.060959 0.179163 -0.025490 0.174033 -0.054759 0.000646 -0.155569 -0.109099 -0.080257 -0.026806 -0.070106 -0.182788 0.030713 0.146741 -0.080941 0.059311 -0.002114 0.110011 0.002451 0.106713 -0.086719 -0.179079 0.076040 -0.108566 -0.225288 0.109539 -0.015317 -0.095203 0.053399 -0.135197 -0.015410 0.007008 0.082083 0.204893 0.021557 -0.000809 -0.150862 -0.031964 0.004663 -0.030071 0.083935 -0.129022 0.073116 -0.068483 0.114717 -0.110985 -0.115977 -0.065057 -0.128694 0.098455 -0.267337 -0.156289 -0.042368 0.034503 0.060717
30 -0.002805 -0.128811 0.117949 -0.020603 -0.018902 -0.130780 0.105383 -0.049212 -0.059602 0.131846 -0.097557 0.046996 0.142257 -0.220523 -0.051395 -0.140155 -0.010506 -0.151147 0.029565 0.033571 0.290796 -0.026625 0.075581 0.113226 -0.014345 -0.030922 -0.022576 0.122980 -0.009595 0.175599 -0.059646 0.127310 -0.053107 0.006817 -0.184942 -0.189216 0.177808 0.140283 0.028647 -0.163952 -0.254254 0.100125 0.020567 0.088975 -0.105518 0.206569 -0.011605 -0.055198 -0.054053 0.141378 -0.061413 0.247186 0.056870 0.092512 -0.206677 -0.103156 -0.118846 -0.086153 -0.094541 -0.021810 0.176509 -0.146621 -0.082742 0.084594 0.045165 -0.186097 -0.099187 -0.042936 -0.049472 -0.156943 -0.058281 -0.030634 -0.013062 -0.033701 0.079669 -0.098446 0.061389 0.008152 -0.001229 0.025803 -0.085566 -0.178030 0.022382 -0.141055 -0.140679 0.190719 -0.034720 -0.068307 -0.072828 -0.032651 0.069729 0.068164 0.092520 -0.064445 -0.081343 0.139785 -0.131169 -0.061919 0.078286 -0.124958 -0.183621 0.061270 -0.127527 -0.010759 0.047264 0.099108 0.255933 0.018309 0.005464 -0.051784 0.023122 -0.110062 -0.049126 0.063699 -0.060569 0.023821 -0.129327 0.150345 -0.065918 -0.030295 -0.069191 -0.105161 0.010534 -0.254851 -0.029066 0.125490 -0.030409 0.031487
8 -0.018525 -0.197724 0.163317 -0.038568 -0.001715 -0.165382 0.054179 0.067163 0.000936 0.120121 -0.066791 0.083530 0.107901 -0.229749 0.067864 -0.230765 -0.024193 -0.191822 0.080258 -0.056119 0.266125 -0.027019 0.036912 0.089326 0.059551 0.030869 0.001672 0.191180 0.068265 0.127524 -0.090919 0.097893 -0.075429 0.064337 -0.116315 -0.196626 0.138057 0.115923 0.096931 -0.105070 -0.166169 0.035820 0.069888 0.138845 -0.160167 0.184613 -0.030540 -0.068069 -0.010154 0.176379 -0.130795 0.150409 0.034134 0.196534 -0.233126 -0.094377 -0.098394 -0.015887 -0.110704 -0.048447 0.180897 -0.185460 -0.048677 0.069318 -0.034638 -0.083096 -0.075862 -0.011976 -0.043587 -0.227857 -0.113583 -0.049174 -0.033071 -0.062408 0.154176 -0.037700 0.152174 -0.045403 0.002980 -0.109217 -0.096584 -0.124216 -0.023616 -0.088443 -0.178959 0.082649 0.109843 -0.080349 0.033061 -0.010108 0.099953 0.013578 0.094404 -0.099144 -0.168074 0.088613 -0.125303 -0.194313 0.093048 -0.043380 -0.119638 0.052101 -0.131017 -0.017113 0.018410 0.080973 0.222455 0.016853 -0.008897 -0.132683 -0.023367 -0.025431 -0.031515 0.081518 -0.121881 0.059818 -0.090590 0.128811 -0.109707 -0.095616 -0.069749 -0.128552 0.078133 -0.262369 -0.118146 -0.007591 0.026500 0.056605
9 -0.016850 -0.169992 0.146460 -0.035553 -0.003186 -0.157307 0.069502 0.029623 -0.018110 0.121461 -0.074883 0.073838 0.124870 -0.232701 0.022845 -0.200928 -0.023181 -0.170651 0.060263 -0.026636 0.267611 -0.020869 0.053121 0.096935 0.030056 0.011454 -0.007775 0.160180 0.042485 0.143798 -0.078829 0.110916 -0.072178 0.042678 -0.133379 -0.195673 0.153519 0.120781 0.065560 -0.124137 -0.198656 0.053399 0.055804 0.121435 -0.142555 0.186221 -0.023634 -0.063288 -0.026266 0.156467 -0.105932 0.182714 0.036679 0.160740 -0.218092 -0.098705 -0.101784 -0.040217 -0.108187 -0.040877 0.180501 -0.168477 -0.066321 0.072904 -0.006662 -0.118060 -0.083488 -0.021296 -0.048889 -0.197581 -0.090500 -0.039522 -0.019134 -0.053398 0.131389 -0.060729 0.119766 -0.024215 0.000209 -0.058590 -0.089928 -0.145318 -0.008149 -0.114358 -0.165534 0.119745 0.058158 -0.078602 -0.005820 -0.015833 0.088860 0.034796 0.097292 -0.086155 -0.141726 0.105068 -0.126462 -0.148667 0.090687 -0.067075 -0.153075 0.054132 -0.128568 -0.011096 0.027465 0.091164 0.232724 0.025031 -0.005156 -0.106352 -0.001574 -0.056216 -0.034465 0.075886 -0.100544 0.042624 -0.105572 0.141423 -0.093824 -0.072198 -0.069771 -0.123856 0.049297 -0.267880 -0.090816 0.046948 0.003347 0.051466
25 -0.008548 -0.125416 0.119801 -0.025108 -0.020854 -0.138623 0.107342 -0.060996 -0.063313 0.136421 -0.097220 0.044014 0.153223 -0.227959 -0.061923 -0.141195 -0.004071 -0.158529 0.037132 0.044614 0.306945 -0.025192 0.076728 0.129159 -0.019641 -0.039713 -0.028946 0.123037 -0.013932 0.192422 -0.055477 0.134570 -0.054765 0.004646 -0.203382 -0.202276 0.187833 0.151961 0.020606 -0.173044 -0.272090 0.105952 0.012501 0.083611 -0.110031 0.221793 -0.010783 -0.047903 -0.054737 0.140522 -0.061121 0.260659 0.059633 0.093849 -0.218858 -0.111583 -0.111815 -0.099230 -0.103810 -0.018747 0.174859 -0.140304 -0.087982 0.088756 0.040086 -0.194785 -0.102245 -0.042382 -0.057491 -0.152378 -0.059553 -0.030152 -0.011680 -0.027356 0.075993 -0.104853 0.043864 0.011305 0.002909 0.030863 -0.083572 -0.183409 0.031226 -0.143463 -0.139649 0.196441 -0.041984 -0.075221 -0.080637 -0.045253 0.061849 0.074763 0.097102 -0.068038 -0.080220 0.141869 -0.132195 -0.057208 0.078753 -0.128111 -0.200212 0.061771 -0.130731 -0.003004 0.054879 0.105677 0.264468 0.019945 0.013742 -0.046830 0.028562 -0.116200 -0.041192 0.066707 -0.065844 0.022354 -0.128057 0.149915 -0.054791 -0.035676 -0.065198 -0.105727 0.002088 -0.264010 -0.027187 0.138781 -0.043561 0.028685
29 -0.009365 -0.124229 0.115720 -0.026034 -0.010854 -0.130144 0.090150 -0.034989 -0.052226 0.122543 -0.081989 0.050706 0.129340 -0.208767 -0.036120 -0.142542 -0.013077 -0.148393 0.040400 0.018578 0.269028 -0.023340 0.058025 0.105489 -0.010529 -0.023308 -0.019814 0.123012 0.007287 0.162672 -0.056171 0.114539 -0.051956 0.016529 -0.167578 -0.179875 0.167936 0.129405 0.034940 -0.148753 -0.224060 0.085974 0.021012 0.084402 -0.104394 0.193563 -0.015172 -0.050869 -0.048313 0.133860 -0.065046 0.215708 0.047200 0.102373 -0.203781 -0.094452 -0.099382 -0.071140 -0.093005 -0.022043 0.163653 -0.138860 -0.080075 0.075395 0.026383 -0.162012 -0.094753 -0.036001 -0.045406 -0.149028 -0.065870 -0.030025 -0.016625 -0.031877 0.083680 -0.079928 0.069389 0.000395 0.002254 0.008781 -0.082645 -0.158789 0.021242 -0.126488 -0.133271 0.166768 -0.010980 -0.071304 -0.054319 -0.034438 0.065596 0.056676 0.082812 -0.066989 -0.084827 0.124939 -0.126202 -0.074102 0.074548 -0.110013 -0.174377 0.058395 -0.118976 -0.006848 0.044082 0.095109 0.236599 0.014764 0.007129 -0.056804 0.022221 -0.092991 -0.043646 0.064626 -0.070143 0.022668 -0.117649 0.136193 -0.059650 -0.042333 -0.064260 -0.104632 0.012949 -0.245952 -0.036531 0.104779 -0.025846 0.029846
26 -0.003665 -0.121840 0.119049 -0.027101 -0.013799 -0.135612 0.101344 -0.047259 -0.060989 0.126093 -0.090669 0.043822 0.146244 -0.221128 -0.049677 -0.136086 -0.006408 -0.151520 0.033091 0.031637 0.289870 -0.021809 0.072504 0.121165 -0.015048 -0.032042 -0.030387 0.119294 -0.006696 0.175918 -0.054879 0.124976 -0.052684 0.005847 -0.185431 -0.195061 0.175453 0.135569 0.025123 -0.159580 -0.247350 0.088826 0.014667 0.083754 -0.110008 0.207080 -0.015407 -0.048738 -0.051164 0.137376 -0.055611 0.238600 0.049888 0.090520 -0.202922 -0.102833 -0.105657 -0.083493 -0.101612 -0.020477 0.171382 -0.140886 -0.081435 0.087689 0.035529 -0.174042 -0.093493 -0.041947 -0.050850 -0.151485 -0.059438 -0.028151 -0.015199 -0.033634 0.082474 -0.096264 0.051461 0.003385 -0.000957 0.017502 -0.084581 -0.165332 0.026378 -0.129594 -0.134393 0.179863 -0.032806 -0.068794 -0.065532 -0.036478 0.064748 0.067789 0.093923 -0.059680 -0.079855 0.129073 -0.124738 -0.062195 0.079787 -0.117147 -0.180920 0.057228 -0.119601 -0.001986 0.049460 0.101795 0.249211 0.019079 0.012949 -0.045049 0.021484 -0.105348 -0.040134 0.068285 -0.061466 0.024645 -0.119175 0.140986 -0.053234 -0.040838 -0.064699 -0.107765 0.006075 -0.257958 -0.032207 0.123147 -0.036351 0.027831
5 -0.026223 -0.224355 0.163308 -0.045876 0.011727 -0.176043 0.028750 0.117144 0.047518 0.099354 -0.045151 0.101762 0.081037 -0.220789 0.125181 -0.261863 -0.034220 -0.213169 0.086596 -0.099615 0.248079 -0.025421 0.020063 0.083889 0.101401 0.042383 0.009140 0.200442 0.096569 0.092005 -0.097672 0.077830 -0.080811 0.076667 -0.075806 -0.193352 0.101826 0.106379 0.115417 -0.078285 -0.117306 0.005211 0.094037 0.148365 -0.190636 0.166399 -0.026391 -0.071143 0.018989 0.187365 -0.156370 0.113851 0.014073 0.226571 -0.225022 -0.088466 -0.079540 0.021771 -0.103242 -0.056671 0.180824 -0.201327 -0.021388 0.069518 -0.081797 -0.025903 -0.056604 0.006023 -0.036162 -0.257493 -0.128615 -0.053691 -0.045354 -0.073602 0.189687 -0.015247 0.191203 -0.071207 -0.000355 -0.182072 -0.108250 -0.072405 -0.042359 -0.060902 -0.190126 0.007253 0.172696 -0.075899 0.083288 0.006743 0.114202 -0.012296 0.103492 -0.095281 -0.200119 0.067003 -0.112104 -0.246894 0.111159 0.008813 -0.086187 0.052761 -0.130067 -0.021956 -0.005532 0.072082 0.191326 0.019755 -0.013171 -0.163558 -0.046382 0.019401 -0.025898 0.080845 -0.140563 0.078235 -0.057393 0.113470 -0.119418 -0.120113 -0.065823 -0.126566 0.107281 -0.264554 -0.169696 -0.066654 0.044055 0.073077
11 -0.027523 -0.208948 0.162482 -0.041958 0.004255 -0.171093 0.042325 0.084790 0.026107 0.109337 -0.060788 0.091322 0.097653 -0.225484 0.089956 -0.240538 -0.027972 -0.207871 0.076873 -0.075781 0.269898 -0.030408 0.039559 0.095582 0.076148 0.022617 -0.003193 0.191699 0.071967 0.114704 -0.085036 0.096354 -0.070928 0.056297 -0.107566 -0.196055 0.124324 0.121856 0.098498 -0.097142 -0.157536 0.031972 0.083622 0.136026 -0.180686 0.187150 -0.019977 -0.064314 0.001600 0.188093 -0.137600 0.151661 0.021054 0.204202 -0.231639 -0.097498 -0.091219 -0.000858 -0.111253 -0.043262 0.184727 -0.194927 -0.033527 0.078488 -0.059147 -0.063148 -0.071443 -0.005148 -0.039835 -0.244007 -0.113878 -0.050819 -0.042783 -0.063194 0.172485 -0.031924 0.165567 -0.055639 -0.001175 -0.142007 -0.102594 -0.089744 -0.025532 -0.079774 -0.186400 0.050041 0.130081 -0.078191 0.049534 -0.003703 0.101698 0.005880 0.106643 -0.085600 -0.172049 0.081859 -0.111275 -0.206790 0.103733 -0.020009 -0.103739 0.060441 -0.135317 -0.015012 0.010741 0.081809 0.215287 0.016422 -0.000838 -0.143823 -0.030742 -0.005460 -0.035667 0.077483 -0.123238 0.063885 -0.077460 0.122977 -0.110155 -0.107834 -0.064419 -0.126576 0.090505 -0.263731 -0.141971 -0.032141 0.022778 0.060901
31 -0.008353 -0.146396 0.137693 -0.027034 -0.008577 -0.146189 0.081614 -0.008061 -0.043208 0.123849 -0.079722 0.061702 0.133580 -0.222964 -0.008119 -0.173635 -0.019704 -0.159508 0.050649 -0.003798 0.277631 -0.024577 0.055305 0.109418 0.011540 -0.005449 -0.011240 0.150094 0.021084 0.153295 -0.074295 0.117534 -0.066826 0.031560 -0.151056 -0.185932 0.159087 0.124081 0.054524 -0.143824 -0.215952 0.075967 0.038951 0.102799 -0.121806 0.192448 -0.021367 -0.059439 -0.038520 0.151254 -0.085266 0.208101 0.045878 0.130009 -0.212423 -0.100643 -0.103123 -0.060258 -0.103871 -0.034628 0.177414 -0.155032 -0.074939 0.070384 0.011390 -0.144052 -0.094476 -0.031270 -0.049909 -0.176546 -0.077319 -0.038671 -0.017486 -0.044523 0.107058 -0.074524 0.099078 -0.015319 0.004323 -0.020282 -0.083893 -0.157666 0.005391 -0.121233 -0.148548 0.147162 0.014888 -0.075383 -0.031307 -0.025783 0.071109 0.052041 0.091838 -0.079779 -0.117230 0.119798 -0.128590 -0.108405 0.081140 -0.087727 -0.164814 0.056877 -0.118716 -0.012945 0.032369 0.092724 0.236281 0.021231 0.003011 -0.076194 0.005884 -0.080965 -0.043363 0.067557 -0.079272 0.037419 -0.113349 0.142717 -0.081576 -0.051334 -0.066717 -0.111012 0.028377 -0.254321 -0.058866 0.078482 -0.014595 0.040274
20 -0.014477 -0.165816 0.144670 -0.032709 -0.007715 -0.155449 0.076985 0.020334 -0.028764 0.121568 -0.080655 0.065279 0.128266 -0.226740 0.015172 -0.192499 -0.023638 -0.172435 0.056921 -0.024962 0.278975 -0.025931 0.055261 0.102764 0.028568 0.008191 -0.004341 0.161014 0.039114 0.142346 -0.081723 0.109364 -0.067281 0.039777 -0.138735 -0.192095 0.155288 0.120998 0.063599 -0.133827 -0.207153 0.060116 0.047542 0.115715 -0.134577 0.190629 -0.018500 -0.061989 -0.026918 0.156388 -0.101809 0.189649 0.042885 0.148969 -0.220155 -0.097422 -0.104620 -0.047923 -0.106697 -0.034958 0.184068 -0.165181 -0.064411 0.074635 -0.001834 -0.125469 -0.085343 -0.022042 -0.049852 -0.192090 -0.090331 -0.040292 -0.023359 -0.051194 0.122276 -0.061993 0.119140 -0.025812 0.003174 -0.049663 -0.089460 -0.148444 -0.002906 -0.116650 -0.157212 0.128531 0.044968 -0.074479 -0.012528 -0.016075 0.086304 0.040054 0.092138 -0.085428 -0.132191 0.111288 -0.124767 -0.136272 0.085877 -0.071097 -0.151346 0.052583 -0.126868 -0.008840 0.028220 0.092344 0.229927 0.019941 0.000350 -0.093078 -0.003471 -0.057563 -0.037620 0.075484 -0.094791 0.042412 -0.099151 0.139160 -0.088555 -0.065182 -0.066908 -0.112140 0.045494 -0.260563 -0.078866 0.052553 -0.002068 0.047098
17 -0.025158 -0.207331 0.159140 -0.040222 -0.001997 -0.170921 0.045690 0.084275 0.031476 0.114135 -0.054632 0.095558 0.096946 -0.222511 0.087876 -0.232100 -0.028048 -0.212943 0.074397 -0.072562 0.264394 -0.033570 0.035879 0.090976 0.081923 0.025894 -0.002423 0.189197 0.077761 0.118938 -0.084621 0.094600 -0.069511 0.058653 -0.110180 -0.202071 0.122220 0.124077 0.097003 -0.097750 -0.157606 0.025468 0.078298 0.137092 -0.183625 0.183669 -0.019136 -0.064399 0.003934 0.187530 -0.142959 0.147269 0.018975 0.200102 -0.227671 -0.095914 -0.093886 0.001411 -0.101534 -0.048898 0.185483 -0.192881 -0.033215 0.074821 -0.059461 -0.059777 -0.067965 -0.003855 -0.040463 -0.240413 -0.117384 -0.050414 -0.041669 -0.062599 0.173336 -0.027046 0.162481 -0.055393 0.001784 -0.147829 -0.103920 -0.088126 -0.021290 -0.073540 -0.187547 0.044892 0.134613 -0.081159 0.053604 -0.006248 0.102197 0.007299 0.105866 -0.083942 -0.174919 0.082803 -0.109110 -0.208673 0.108493 -0.019636 -0.104245 0.055936 -0.139158 -0.013533 0.011408 0.081083 0.212964 0.016009 -0.003951 -0.141190 -0.029490 -0.005448 -0.028587 0.082652 -0.125987 0.068497 -0.077492 0.126169 -0.110407 -0.112222 -0.063234 -0.123741 0.092587 -0.263297 -0.149480 -0.032196 0.025173 0.064482
13 -0.014756 -0.176643 0.153389 -0.040075 -0.001533 -0.155818 0.054664 0.051314 -0.006199 0.115620 -0.067770 0.072294 0.110787 -0.221716 0.052301 -0.209002 -0.026749 -0.177026 0.067645 -0.053608 0.258429 -0.024145 0.035306 0.090132 0.044193 0.022961 0.005777 0.178162 0.061536 0.121571 -0.086071 0.096780 -0.073048 0.053572 -0.112768 -0.186053 0.134304 0.114458 0.084835 -0.107999 -0.162924 0.038741 0.065321 0.127240 -0.145968 0.175775 -0.023468 -0.062890 -0.013634 0.165063 -0.118171 0.154028 0.032756 0.180205 -0.220712 -0.093092 -0.097134 -0.022644 -0.101817 -0.043824 0.177711 -0.168619 -0.054847 0.061010 -0.023662 -0.088231 -0.079634 -0.016774 -0.040244 -0.212325 -0.103082 -0.046688 -0.026313 -0.058782 0.142599 -0.045661 0.140473 -0.040732 0.000302 -0.094023 -0.091225 -0.124397 -0.018480 -0.093006 -0.166599 0.085573 0.090393 -0.078185 0.019376 -0.004571 0.093585 0.019767 0.085727 -0.095266 -0.152052 0.089097 -0.118811 -0.173487 0.085670 -0.043987 -0.118767 0.050906 -0.119860 -0.012593 0.015317 0.076306 0.212210 0.018261 -0.007322 -0.119438 -0.010724 -0.032689 -0.033121 0.080560 -0.109294 0.048741 -0.089874 0.129703 -0.099041 -0.085223 -0.063351 -0.114984 0.068984 -0.247724 -0.106593 0.011213 0.020919 0.056314
19 -0.005496 -0.137089 0.130907 -0.028923 -0.013833 -0.136739 0.096163 -0.036045 -0.048773 0.130377 -0.094629 0.055266 0.138823 -0.222892 -0.035004 -0.150951 -0.017389 -0.163592 0.041103 0.019306 0.294456 -0.028609 0.068826 0.119652 -0.003981 -0.019951 -0.022347 0.135549 0.001657 0.168722 -0.064581 0.129845 -0.057298 0.011249 -0.176259 -0.195487 0.168422 0.139328 0.039250 -0.156132 -0.249998 0.093353 0.027407 0.092167 -0.113317 0.209796 -0.009354 -0.058535 -0.047913 0.150707 -0.071838 0.238079 0.047499 0.108960 -0.211499 -0.102707 -0.117509 -0.076192 -0.095013 -0.026260 0.179221 -0.153579 -0.079274 0.085191 0.030280 -0.177092 -0.092914 -0.039357 -0.053628 -0.170496 -0.065679 -0.035396 -0.016218 -0.035699 0.090012 -0.094467 0.079937 -0.001857 -0.003184 0.000512 -0.086403 -0.168120 0.020344 -0.140120 -0.150991 0.173730 -0.011984 -0.071222 -0.059900 -0.032218 0.070979 0.069094 0.098911 -0.066954 -0.100277 0.139873 -0.129690 -0.080870 0.083669 -0.114294 -0.179357 0.062651 -0.130397 -0.010252 0.042927 0.099896 0.249846 0.017675 0.006646 -0.062548 0.017697 -0.095443 -0.046207 0.066026 -0.067791 0.034556 -0.118704 0.154336 -0.074873 -0.037313 -0.067640 -0.109210 0.016635 -0.261465 -0.046803 0.108840 -0.031115 0.031409
27 -0.005144 -0.135682 0.121216 -0.028396 -0.011903 -0.131796 0.095857 -0.030297 -0.053480 0.127425 -0.090481 0.048950 0.135457 -0.213358 -0.034997 -0.149684 -0.009472 -0.156797 0.037549 0.014422 0.286571 -0.022254 0.067822 0.117051 -0.005432 -0.026040 -0.025602 0.132529 -0.000831 0.167691 -0.061721 0.120454 -0.058197 0.010716 -0.168000 -0.191438 0.166562 0.133376 0.032409 -0.154748 -0.243195 0.090387 0.025484 0.091662 -0.108593 0.203986 -0.008527 -0.053760 -0.047688 0.145346 -0.064707 0.233917 0.047572 0.109905 -0.208057 -0.105963 -0.112590 -0.076326 -0.091786 -0.024125 0.172464 -0.142473 -0.081178 0.079900 0.032234 -0.168939 -0.096980 -0.033913 -0.049469 -0.161787 -0.067821 -0.028703 -0.015264 -0.040036 0.085286 -0.092966 0.074121 -0.003433 -0.003380 0.008174 -0.084677 -0.165547 0.019904 -0.127337 -0.146992 0.170792 -0.010875 -0.071634 -0.061982 -0.028715 0.064515 0.059314 0.091746 -0.067690 -0.095941 0.132443 -0.124389 -0.080283 0.082658 -0.113235 -0.180747 0.059742 -0.119380 -0.011166 0.043917 0.097436 0.246031 0.014563 0.003955 -0.056827 0.022131 -0.095422 -0.046611 0.063956 -0.066115 0.027686 -0.120777 0.147272 -0.071633 -0.039828 -0.067462 -0.103852 0.020021 -0.258561 -0.045833 0.110173 -0.025674 0.034866
21 -0.008695 -0.111379 0.112849 -0.026599 -0.019944 -0.125550 0.101345 -0.057645 -0.058781 0.130757 -0.091914 0.043746 0.140571 -0.215186 -0.055935 -0.125606 -0.010091 -0.145383 0.031812 0.035029 0.285932 -0.024661 0.068787 0.119301 -0.018021 -0.034753 -0.024527 0.115890 -0.011773 0.172712 -0.051790 0.127710 -0.051068 0.005261 -0.184411 -0.188492 0.172053 0.139644 0.023984 -0.158392 -0.258036 0.105035 0.011976 0.076321 -0.103478 0.203744 -0.006736 -0.048569 -0.050475 0.133235 -0.051176 0.246707 0.055734 0.083244 -0.201298 -0.100350 -0.111974 -0.092569 -0.094274 -0.016927 0.166135 -0.135143 -0.084838 0.085466 0.047439 -0.188054 -0.095412 -0.045652 -0.052817 -0.149956 -0.051370 -0.033303 -0.011740 -0.026346 0.074291 -0.097570 0.050268 0.004147 0.001143 0.031955 -0.079398 -0.170265 0.027580 -0.143071 -0.137280 0.183568 -0.042668 -0.069131 -0.071818 -0.038517 0.065262 0.075438 0.087507 -0.056120 -0.077272 0.136739 -0.125868 -0.051588 0.075166 -0.122584 -0.187229 0.056092 -0.122616 -0.002558 0.052396 0.100304 0.244051 0.012171 0.008816 -0.045187 0.032519 -0.103301 -0.046594 0.064313 -0.060454 0.027890 -0.127932 0.148192 -0.058215 -0.023242 -0.063410 -0.100129 0.004793 -0.249299 -0.022445 0.128897 -0.035007 0.023699
18 -0.016236 -0.178989 0.152570 -0.038170 0.000490 -0.164408 0.060344 0.044389 -0.011482 0.124403 -0.074252 0.078382 0.124656 -0.233067 0.039655 -0.216050 -0.023274 -0.181423 0.065790 -0.034903 0.278646 -0.025633 0.049980 0.100672 0.046059 0.020031 -0.002032 0.176713 0.056135 0.137180 -0.085912 0.107083 -0.072124 0.054917 -0.130069 -0.199021 0.145232 0.119922 0.082091 -0.119125 -0.188842 0.052338 0.058680 0.126511 -0.151058 0.189729 -0.029607 -0.064282 -0.016003 0.166285 -0.113840 0.170831 0.039873 0.179805 -0.230335 -0.093227 -0.098064 -0.033940 -0.113995 -0.042516 0.185946 -0.181094 -0.059165 0.072199 -0.016468 -0.103369 -0.083869 -0.020068 -0.045179 -0.210667 -0.103101 -0.046754 -0.022865 -0.060909 0.144788 -0.050885 0.140418 -0.033483 0.005397 -0.080909 -0.099915 -0.135386 -0.009359 -0.107084 -0.171428 0.106682 0.078149 -0.080019 0.009626 -0.011243 0.092230 0.026855 0.098269 -0.096332 -0.156103 0.104729 -0.131334 -0.162031 0.094479 -0.060112 -0.140705 0.059670 -0.126267 -0.011707 0.022949 0.091196 0.226224 0.018715 -0.005859 -0.115211 -0.012912 -0.048409 -0.037701 0.078632 -0.106120 0.048248 -0.095702 0.132282 -0.094279 -0.082712 -0.068356 -0.126173 0.056418 -0.266027 -0.096144 0.021093 0.008153 0.050800
10 -0.012808 -0.157719 0.134113 -0.030412 -0.002976 -0.141192 0.072255 0.019652 -0.019443 0.113567 -0.071370 0.068451 0.114993 -0.212540 0.015375 -0.179641 -0.017101 -0.163378 0.052943 -0.021024 0.261824 -0.024215 0.048588 0.101172 0.026727 0.002254 -0.007049 0.149585 0.034981 0.135413 -0.076656 0.099542 -0.062296 0.040733 -0.136791 -0.184886 0.147306 0.114789 0.057578 -0.127583 -0.195646 0.056119 0.052444 0.113998 -0.128815 0.185596 -0.014045 -0.059124 -0.021266 0.149313 -0.094173 0.181077 0.039887 0.143740 -0.209626 -0.092183 -0.095791 -0.044798 -0.101599 -0.034679 0.172485 -0.157797 -0.064755 0.071843 -0.004471 -0.115042 -0.084331 -0.022896 -0.048327 -0.190199 -0.082817 -0.041228 -0.018758 -0.047940 0.123082 -0.057742 0.111971 -0.025240 -0.001198 -0.052342 -0.092149 -0.138989 -0.000326 -0.102451 -0.156940 0.118523 0.046114 -0.076110 -0.009291 -0.019721 0.083600 0.037201 0.092602 -0.076431 -0.128141 0.108283 -0.120136 -0.136396 0.086298 -0.067034 -0.144531 0.052181 -0.119353 -0.010623 0.024092 0.086820 0.224318 0.022394 -0.003856 -0.089737 0.002627 -0.060251 -0.034075 0.069611 -0.086303 0.042153 -0.095714 0.132624 -0.083589 -0.068587 -0.063859 -0.112070 0.044376 -0.248237 -0.075879 0.044776 -0.002051 0.046539
22 -0.013591 -0.181152 0.152171 -0.036545 -0.002661 -0.163024 0.061993 0.042939 -0.014616 0.117961 -0.073634 0.076790 0.120508 -0.230902 0.043055 -0.212565 -0.025426 -0.185299 0.071615 -0.037063 0.276901 -0.026488 0.049085 0.100760 0.041859 0.019571 -0.004745 0.171905 0.055717 0.137348 -0.085530 0.100699 -0.075355 0.051321 -0.131001 -0.198110 0.142407 0.117096 0.078184 -0.124287 -0.181962 0.044698 0.058692 0.129944 -0.147434 0.191055 -0.028781 -0.061958 -0.014116 0.165956 -0.115447 0.169117 0.032248 0.172723 -0.222738 -0.095040 -0.095119 -0.025596 -0.106344 -0.043910 0.183307 -0.173941 -0.054350 0.074895 -0.021077 -0.099851 -0.086123 -0.014312 -0.043265 -0.208433 -0.101592 -0.043518 -0.026546 -0.058633 0.143795 -0.049574 0.134659 -0.034649 0.006635 -0.082411 -0.098530 -0.134010 -0.009113 -0.104473 -0.167931 0.099257 0.079672 -0.081519 0.014991 -0.013501 0.093224 0.026209 0.094525 -0.094456 -0.151901 0.102052 -0.125867 -0.163815 0.094965 -0.058268 -0.135741 0.056576 -0.121970 -0.011253 0.022883 0.090620 0.224240 0.022704 -0.003999 -0.110843 -0.009754 -0.042999 -0.033127 0.080534 -0.106726 0.050370 -0.096155 0.132287 -0.099545 -0.082504 -0.064752 -0.120529 0.059574 -0.260507 -0.096821 0.021342 0.014208 0.052349
23 -0.008699 -0.147123 0.132782 -0.027747 -0.011653 -0.144715 0.092186 -0.014558 -0.043284 0.130165 -0.090762 0.059558 0.140535 -0.233485 -0.021865 -0.167285 -0.017079 -0.167279 0.048061 0.009205 0.295853 -0.026875 0.062320 0.118171 0.006179 -0.015538 -0.022011 0.143365 0.010333 0.170340 -0.071477 0.126350 -0.064098 0.022730 -0.173548 -0.203326 0.174469 0.135141 0.043425 -0.153295 -0.241231 0.085875 0.036363 0.105033 -0.123449 0.207008 -0.017649 -0.055829 -0.045534 0.154402 -0.080040 0.227818 0.051902 0.123436 -0.221719 -0.109520 -0.115915 -0.070164 -0.102795 -0.034480 0.185723 -0.161880 -0.075565 0.083170 0.023606 -0.162779 -0.093521 -0.030955 -0.049740 -0.176572 -0.075772 -0.035626 -0.015374 -0.042417 0.099992 -0.084538 0.091964 -0.008521 0.003193 -0.011085 -0.085321 -0.168343 0.016531 -0.131062 -0.156471 0.166389 0.003630 -0.073678 -0.046888 -0.029277 0.077622 0.059454 0.092755 -0.076885 -0.114147 0.128917 -0.129507 -0.102572 0.084482 -0.099718 -0.176196 0.058862 -0.125178 -0.012857 0.038624 0.094842 0.247144 0.016901 0.006409 -0.071792 0.009276 -0.089818 -0.045459 0.068237 -0.080258 0.034539 -0.120314 0.149659 -0.076340 -0.049973 -0.066622 -0.110698 0.025278 -0.268164 -0.054459 0.090650 -0.019802 0.039158
15 -0.012365 -0.137090 0.129069 -0.029584 -0.010383 -0.131509 0.093089 -0.029387 -0.047010 0.123085 -0.083849 0.051488 0.133271 -0.214448 -0.025507 -0.154244 -0.017063 -0.158658 0.038128 0.007649 0.284184 -0.021863 0.064245 0.113660 -0.003621 -0.018785 -0.021665 0.132587 0.007501 0.159714 -0.066965 0.122154 -0.055763 0.017233 -0.164650 -0.189249 0.163861 0.131005 0.042107 -0.147247 -0.235605 0.085871 0.028222 0.093369 -0.110254 0.201731 -0.017025 -0.054668 -0.044937 0.142352 -0.070322 0.223541 0.047431 0.113717 -0.209679 -0.104818 -0.112752 -0.076123 -0.095482 -0.023478 0.176264 -0.143559 -0.076918 0.075090 0.027890 -0.158600 -0.091072 -0.035306 -0.045986 -0.161276 -0.064179 -0.036149 -0.014566 -0.040881 0.089449 -0.086467 0.079169 -0.005748 -0.004149 -0.004047 -0.082427 -0.158394 0.016529 -0.131294 -0.147574 0.159409 -0.007396 -0.074368 -0.050561 -0.025827 0.070978 0.061830 0.093024 -0.071883 -0.102220 0.130477 -0.123741 -0.082185 0.082710 -0.100899 -0.170210 0.058062 -0.124490 -0.007107 0.042772 0.091783 0.242609 0.018883 0.005826 -0.067733 0.018323 -0.089827 -0.045735 0.063741 -0.074765 0.034860 -0.115284 0.148609 -0.074304 -0.040278 -0.062168 -0.110368 0.025277 -0.251785 -0.051252 0.100495 -0.020408 0.037610
16 -0.008392 -0.133199 0.126661 -0.026331 -0.013652 -0.136662 0.096234 -0.029391 -0.049680 0.126643 -0.089759 0.052961 0.134268 -0.214993 -0.027766 -0.153788 -0.017205 -0.159403 0.036570 0.011268 0.282018 -0.023291 0.067150 0.111076 -0.001587 -0.018990 -0.018588 0.132027 0.005385 0.159999 -0.067247 0.122614 -0.059205 0.013958 -0.167218 -0.188489 0.171430 0.129158 0.035453 -0.154350 -0.239033 0.089707 0.029357 0.093371 -0.109914 0.198308 -0.010889 -0.052339 -0.048228 0.146518 -0.067156 0.226234 0.050631 0.111545 -0.207586 -0.100887 -0.110296 -0.074045 -0.095913 -0.028788 0.176287 -0.150225 -0.080744 0.076218 0.030875 -0.166410 -0.093441 -0.032229 -0.051359 -0.166749 -0.064118 -0.037572 -0.014107 -0.040051 0.093275 -0.087950 0.079821 -0.006743 -0.001584 0.003309 -0.079732 -0.167880 0.017635 -0.132916 -0.143640 0.170917 -0.008074 -0.068592 -0.051461 -0.028713 0.067098 0.062846 0.086551 -0.069288 -0.097682 0.132035 -0.123480 -0.085879 0.078085 -0.110462 -0.171419 0.059059 -0.118967 -0.010244 0.040091 0.093195 0.240711 0.016498 0.008532 -0.060797 0.017465 -0.087524 -0.046204 0.068457 -0.068967 0.032941 -0.117540 0.147215 -0.069134 -0.043996 -0.066173 -0.104735 0.018077 -0.256297 -0.042403 0.104752 -0.023055 0.038369
12 -0.023067 -0.187973 0.152931 -0.042167 -0.001575 -0.162346 0.047656 0.057060 0.001116 0.113252 -0.059059 0.083314 0.106041 -0.217975 0.061664 -0.213694 -0.028323 -0.185135 0.072130 -0.058342 0.261525 -0.022162 0.041564 0.091005 0.053486 0.020217 0.000733 0.176459 0.063127 0.118589 -0.080778 0.095165 -0.074766 0.055048 -0.112229 -0.186664 0.126514 0.116753 0.086635 -0.103427 -0.161583 0.034288 0.069261 0.125413 -0.157421 0.180846 -0.023110 -0.062970 -0.010239 0.166294 -0.122085 0.152815 0.026417 0.177541 -0.221621 -0.094414 -0.089989 -0.014944 -0.106601 -0.040406 0.181105 -0.175858 -0.046703 0.072514 -0.039956 -0.077376 -0.071884 -0.011510 -0.039347 -0.214599 -0.100224 -0.043697 -0.029947 -0.058236 0.152750 -0.041270 0.149527 -0.039844 0.002665 -0.103236 -0.096833 -0.108219 -0.021667 -0.088496 -0.170642 0.076187 0.097779 -0.077469 0.028284 -0.010886 0.092385 0.019273 0.093413 -0.089185 -0.154656 0.085061 -0.112052 -0.180694 0.095633 -0.035943 -0.118971 0.049780 -0.121122 -0.010667 0.015101 0.077326 0.207968 0.019878 -0.000058 -0.125001 -0.024270 -0.024973 -0.031956 0.079640 -0.109220 0.058787 -0.082834 0.125383 -0.102477 -0.094282 -0.065277 -0.122015 0.071899 -0.253249 -0.117547 -0.001222 0.014405 0.055363
